MTP
version = 1.1.0
potential_name = MTP1m
scaling = 5.000000000000000e-02
species_count = 2
potential_tag = 
radial_basis_type = RBChebyshev
	min_dist = 1.500000000000000e+00
	max_dist = 5.400000000000000e+00
	radial_basis_size = 8
	radial_funcs_count = 8
	radial_coeffs
		0-0
			{2.016616323653118e-01, -1.236263363429224e-01, 3.891105385117211e-02, 8.285084171632874e-02, -7.197434379885284e-02, -1.590527313332012e-02, -8.492461802906076e-03, -1.916961327252460e-02}
			{1.311605349523051e-01, 4.886936762526338e-02, -1.166261803113079e-01, 1.999252432097439e-01, -9.284505224378035e-02, 1.371134987158686e-02, -1.004829634775358e-02, -1.095154177251832e-02}
			{1.280930458041883e-01, 2.904480529914286e-01, -1.040441865978970e-01, 2.794550446843663e-02, 5.309002539300588e-02, -6.263565408650433e-02, -3.674849965142949e-03, -3.666661659655988e-02}
			{-4.997692889777748e-01, -5.504881059509135e-02, 2.512599316366078e-01, -4.773043380118038e-01, 1.836583964251622e-01, -1.753356140523896e-02, 4.447300965329094e-02, 5.328166637286408e-02}
			{-3.342027246550986e-01, 2.957522837581536e-01, -2.338442344333435e-01, 1.233616668879626e-01, 9.995557447168246e-02, 6.421197192569150e-04, 2.262335438710027e-02, 2.778893112036747e-02}
			{-1.788880334712267e-01, 1.471639695264223e-01, -2.011105136291761e-01, 1.549248644786370e-02, 7.417273108684869e-02, 2.024433038421306e-01, 1.685727321099197e-03, 8.549950574380256e-02}
			{3.681923777634202e-02, -1.364293083013093e-01, 2.903868635551958e-01, -2.915114331797223e-01, 3.594767176666734e-01, -2.590709008983244e-01, 6.457568176057921e-02, -3.679817311159991e-02}
			{1.307023255876589e-01, 2.097764830079906e-01, 4.346655008181775e-03, -1.231177833586500e-01, 9.826825542965789e-02, -9.012855893472213e-02, 5.620032418390176e-02, -1.636836308532955e-02}
		0-1
			{2.595797828450790e-01, -8.299604298592717e-02, 1.560177360124453e-01, 1.348958408251726e-01, 1.878353777606720e-02, -6.251880742577570e-03, 1.397364664302963e-02, -2.410495609742975e-03}
			{3.022582808403105e-01, -1.849126895227880e-01, 9.375277809886746e-02, 1.106464885529120e-01, 3.830707240572059e-02, -2.999949144539740e-02, 2.590513013457924e-02, -5.951027075348583e-03}
			{-1.303919381397064e-01, 6.259753224903906e-01, -2.463118682004174e-01, -4.614099076918964e-03, 7.685738748687361e-02, -3.435823420273520e-03, -4.695363458996505e-03, 1.661834433958833e-02}
			{-2.215773735266512e-01, -7.676124493422787e-02, 2.718904256350169e-01, -1.660066043677296e-01, -1.136710788046878e-01, 4.505886557230449e-02, -3.961591220621188e-02, -1.577121709161149e-03}
			{-1.741431799948197e-01, -4.221386011534947e-01, -3.823205844062926e-01, -9.787286542008683e-02, 7.504022372273220e-02, -9.111242574971107e-02, 1.819853331867119e-02, -2.194878006845028e-02}
			{1.382999692905146e-01, 8.310550663937985e-02, -1.317275971818982e-02, -3.329472172643247e-01, 5.924337950666057e-02, 4.047189892181639e-02, 3.650445343207656e-02, 3.356234153012342e-02}
			{1.378830599654833e-01, 2.737856594019332e-01, -1.789454089402688e-01, 1.863285733881666e-01, 2.819337870717044e-01, -8.088584846551396e-02, 2.993765766062908e-02, -2.577380767485456e-03}
			{-5.287982387266286e-02, -2.092888596984903e-01, -4.412742579407941e-01, 2.285885203301789e-01, -2.753633978270582e-01, 1.168022775922481e-01, 1.592065028082841e-02, 4.511883793997323e-02}
		1-0
			{-3.913073712865183e-01, -2.271454484676317e-01, -2.107341091448824e-01, -2.287149260959623e-01, -7.568035721743643e-02, -8.117228138051749e-02, -3.671850857273500e-02, -2.514398039689784e-02}
			{-3.033956421301947e-01, -1.521629509601916e-01, -3.334367785067456e-01, -1.957512360440231e-01, -3.148202220032625e-02, -6.778724534252417e-02, -1.873124691698911e-02, -8.537533632579093e-03}
			{-2.493558213546826e-01, 2.620962128900239e-01, -1.729845075171585e-01, -8.688251836712949e-02, 2.968800208005274e-02, 3.153231941491599e-02, 1.169942156741603e-02, 1.529112325316172e-03}
			{-3.213913961627736e-01, 3.140790235653605e-02, -1.515001571237893e-01, -1.607321538189038e-01, -4.106667496128694e-02, -2.246363077809855e-02, -1.264491514171047e-02, -1.711608123239007e-02}
			{-3.984275238599942e-02, -3.487698566557640e-02, -8.197736666929238e-02, -5.844016881209761e-02, 3.930652544764200e-02, -5.576871678977160e-02, -2.275644324924867e-02, 8.993875450277843e-04}
			{3.291981560816117e-02, -5.972273973912862e-01, -4.220294741475485e-02, -2.182613276883466e-02, -6.703444592440758e-02, 1.327858013448031e-01, 1.597310532240649e-02, 1.483525775208107e-02}
			{1.560208262351375e-01, -3.826666679412901e-01, -1.509266308347092e-01, 3.725612574996177e-02, -5.465727751626025e-03, -3.145629403748044e-02, -6.796371409337813e-03, 5.392419595044087e-04}
			{5.906782147239033e-02, -3.252840881573598e-02, -2.259449668186564e-01, -4.504419372036173e-02, -7.201433577664593e-02, 1.840139821691511e-02, 3.485195840632572e-03, -2.873918023771536e-02}
		1-1
			{4.130613735161699e-01, -4.902369990342570e-01, 1.481439661483829e-01, 1.826424881959958e-03, -2.208954398669149e-01, -1.168041846808817e-01, -1.516084411266992e-03, -3.635072255347299e-02}
			{-4.034343291539668e-01, 3.960009700398678e-01, -2.971252961409566e-01, -1.747713090887704e-01, 2.145809587398174e-01, -1.039259709654731e-01, 4.467239124642238e-02, 1.386150586975616e-02}
			{-9.191218476631871e-02, -1.339718188218390e-01, 9.172522857210329e-02, -4.306707771544493e-01, -1.879225993286558e-02, -2.422960504944367e-02, -1.089727910831638e-01, -1.757547699522779e-02}
			{-2.224841569852145e-02, 9.334329263132574e-02, 1.859470503948746e-02, -2.023048589928814e-01, -4.267401626523661e-02, -1.693970101669992e-01, 5.562573472687880e-02, -6.781127701917927e-02}
			{-6.681245458138020e-02, -4.252407988833421e-01, -3.364128503525812e-01, 7.401714821302536e-04, -3.416606634065975e-02, 1.965506770326693e-02, -1.440436211260299e-01, 4.193683354041762e-02}
			{1.166445730851968e-02, 1.099054359788194e-01, 3.901393478165422e-01, -1.344157419770854e-01, 3.642973293242736e-02, 3.556460318937187e-01, -1.133275402899679e-01, 3.771429208446871e-02}
			{-1.466076942185583e-01, -1.247945758083710e-01, -3.041206233319834e-01, 1.339742533163324e-01, -2.486041412920704e-03, 1.221557223557049e-01, 4.873658975510348e-02, 2.004874986302766e-02}
			{2.057547967713002e-01, 3.750222893987223e-01, 1.279777081985407e-01, -2.125519448551200e-02, -4.179473424235424e-01, 6.775375017218369e-02, 2.393389537372817e-01, -1.297937200682405e-01}
alpha_moments_count = 4113
alpha_index_basic_count = 160
alpha_index_basic = {{2, 0, 0, 0}, {7, 0, 0, 0}, {3, 0, 0, 0}, {1, 0, 0, 0}, {0, 0, 0, 0}, {5, 0, 0, 0}, {4, 0, 0, 0}, {6, 0, 0, 0}, {0, 0, 0, 1}, {0, 0, 1, 0}, {0, 1, 0, 0}, {2, 0, 0, 1}, {2, 0, 1, 0}, {2, 1, 0, 0}, {0, 0, 0, 2}, {0, 0, 1, 1}, {0, 0, 2, 0}, {0, 1, 0, 1}, {0, 1, 1, 0}, {0, 2, 0, 0}, {7, 0, 0, 2}, {7, 0, 1, 1}, {7, 0, 2, 0}, {7, 1, 0, 1}, {7, 1, 1, 0}, {7, 2, 0, 0}, {1, 0, 0, 2}, {1, 0, 1, 1}, {1, 0, 2, 0}, {1, 1, 0, 1}, {1, 1, 1, 0}, {1, 2, 0, 0}, {3, 0, 0, 2}, {3, 0, 1, 1}, {3, 0, 2, 0}, {3, 1, 0, 1}, {3, 1, 1, 0}, {3, 2, 0, 0}, {5, 0, 0, 1}, {5, 0, 1, 0}, {5, 1, 0, 0}, {1, 0, 0, 1}, {1, 0, 1, 0}, {1, 1, 0, 0}, {2, 0, 0, 2}, {2, 0, 1, 1}, {2, 0, 2, 0}, {2, 1, 0, 1}, {2, 1, 1, 0}, {2, 2, 0, 0}, {6, 0, 0, 2}, {6, 0, 1, 1}, {6, 0, 2, 0}, {6, 1, 0, 1}, {6, 1, 1, 0}, {6, 2, 0, 0}, {2, 0, 0, 3}, {2, 0, 1, 2}, {2, 0, 2, 1}, {2, 0, 3, 0}, {2, 1, 0, 2}, {2, 1, 1, 1}, {2, 1, 2, 0}, {2, 2, 0, 1}, {2, 2, 1, 0}, {2, 3, 0, 0}, {3, 0, 0, 3}, {3, 0, 1, 2}, {3, 0, 2, 1}, {3, 0, 3, 0}, {3, 1, 0, 2}, {3, 1, 1, 1}, {3, 1, 2, 0}, {3, 2, 0, 1}, {3, 2, 1, 0}, {3, 3, 0, 0}, {5, 0, 0, 2}, {5, 0, 1, 1}, {5, 0, 2, 0}, {5, 1, 0, 1}, {5, 1, 1, 0}, {5, 2, 0, 0}, {5, 0, 0, 3}, {5, 0, 1, 2}, {5, 0, 2, 1}, {5, 0, 3, 0}, {5, 1, 0, 2}, {5, 1, 1, 1}, {5, 1, 2, 0}, {5, 2, 0, 1}, {5, 2, 1, 0}, {5, 3, 0, 0}, {0, 0, 0, 3}, {0, 0, 1, 2}, {0, 0, 2, 1}, {0, 0, 3, 0}, {0, 1, 0, 2}, {0, 1, 1, 1}, {0, 1, 2, 0}, {0, 2, 0, 1}, {0, 2, 1, 0}, {0, 3, 0, 0}, {4, 0, 0, 3}, {4, 0, 1, 2}, {4, 0, 2, 1}, {4, 0, 3, 0}, {4, 1, 0, 2}, {4, 1, 1, 1}, {4, 1, 2, 0}, {4, 2, 0, 1}, {4, 2, 1, 0}, {4, 3, 0, 0}, {1, 0, 0, 3}, {1, 0, 1, 2}, {1, 0, 2, 1}, {1, 0, 3, 0}, {1, 1, 0, 2}, {1, 1, 1, 1}, {1, 1, 2, 0}, {1, 2, 0, 1}, {1, 2, 1, 0}, {1, 3, 0, 0}, {3, 0, 0, 1}, {3, 0, 1, 0}, {3, 1, 0, 0}, {7, 0, 0, 1}, {7, 0, 1, 0}, {7, 1, 0, 0}, {4, 0, 0, 1}, {4, 0, 1, 0}, {4, 1, 0, 0}, {4, 0, 0, 2}, {4, 0, 1, 1}, {4, 0, 2, 0}, {4, 1, 0, 1}, {4, 1, 1, 0}, {4, 2, 0, 0}, {7, 0, 0, 3}, {7, 0, 1, 2}, {7, 0, 2, 1}, {7, 0, 3, 0}, {7, 1, 0, 2}, {7, 1, 1, 1}, {7, 1, 2, 0}, {7, 2, 0, 1}, {7, 2, 1, 0}, {7, 3, 0, 0}, {6, 0, 0, 3}, {6, 0, 1, 2}, {6, 0, 2, 1}, {6, 0, 3, 0}, {6, 1, 0, 2}, {6, 1, 1, 1}, {6, 1, 2, 0}, {6, 2, 0, 1}, {6, 2, 1, 0}, {6, 3, 0, 0}, {6, 0, 0, 1}, {6, 0, 1, 0}, {6, 1, 0, 0}}
alpha_index_times_count = 13150
alpha_index_times = {{8, 11, 1, 160}, {9, 12, 1, 160}, {10, 13, 1, 160}, {14, 20, 1, 161}, {15, 21, 2, 161}, {16, 22, 1, 161}, {17, 23, 2, 161}, {18, 24, 2, 161}, {19, 25, 1, 161}, {26, 32, 1, 162}, {27, 33, 2, 162}, {28, 34, 1, 162}, {29, 35, 2, 162}, {30, 36, 2, 162}, {31, 37, 1, 162}, {3, 6, 1, 163}, {8, 38, 1, 164}, {9, 39, 1, 164}, {10, 40, 1, 164}, {41, 11, 1, 165}, {42, 12, 1, 165}, {43, 13, 1, 165}, {44, 50, 1, 166}, {45, 51, 2, 166}, {46, 52, 1, 166}, {47, 53, 2, 166}, {48, 54, 2, 166}, {49, 55, 1, 166}, {4, 6, 1, 167}, {56, 66, 1, 168}, {57, 67, 3, 168}, {58, 68, 3, 168}, {59, 69, 1, 168}, {60, 70, 3, 168}, {61, 71, 6, 168}, {62, 72, 3, 168}, {63, 73, 3, 168}, {64, 74, 3, 168}, {65, 75, 1, 168}, {26, 76, 1, 169}, {27, 77, 2, 169}, {28, 78, 1, 169}, {29, 79, 2, 169}, {30, 80, 2, 169}, {31, 81, 1, 169}, {56, 82, 1, 170}, {57, 83, 3, 170}, {58, 84, 3, 170}, {59, 85, 1, 170}, {60, 86, 3, 170}, {61, 87, 6, 170}, {62, 88, 3, 170}, {63, 89, 3, 170}, {64, 90, 3, 170}, {65, 91, 1, 170}, {92, 92, 1, 171}, {93, 93, 3, 171}, {94, 94, 3, 171}, {95, 95, 1, 171}, {96, 96, 3, 171}, {97, 97, 6, 171}, {98, 98, 3, 171}, {99, 99, 3, 171}, {100, 100, 3, 171}, {101, 101, 1, 171}, {0, 7, 1, 172}, {102, 102, 1, 173}, {103, 103, 3, 173}, {104, 104, 3, 173}, {105, 105, 1, 173}, {106, 106, 3, 173}, {107, 107, 6, 173}, {108, 108, 3, 173}, {109, 109, 3, 173}, {110, 110, 3, 173}, {111, 111, 1, 173}, {92, 112, 1, 174}, {93, 113, 3, 174}, {94, 114, 3, 174}, {95, 115, 1, 174}, {96, 116, 3, 174}, {97, 117, 6, 174}, {98, 118, 3, 174}, {99, 119, 3, 174}, {100, 120, 3, 174}, {101, 121, 1, 174}, {122, 125, 1, 175}, {123, 126, 1, 175}, {124, 127, 1, 175}, {128, 128, 1, 176}, {129, 129, 1, 176}, {130, 130, 1, 176}, {14, 76, 1, 177}, {15, 77, 2, 177}, {16, 78, 1, 177}, {17, 79, 2, 177}, {18, 80, 2, 177}, {19, 81, 1, 177}, {14, 50, 1, 178}, {15, 51, 2, 178}, {16, 52, 1, 178}, {17, 53, 2, 178}, {18, 54, 2, 178}, {19, 55, 1, 178}, {41, 41, 1, 179}, {42, 42, 1, 179}, {43, 43, 1, 179}, {26, 131, 1, 180}, {27, 132, 2, 180}, {28, 133, 1, 180}, {29, 134, 2, 180}, {30, 135, 2, 180}, {31, 136, 1, 180}, {44, 76, 1, 181}, {45, 77, 2, 181}, {46, 78, 1, 181}, {47, 79, 2, 181}, {48, 80, 2, 181}, {49, 81, 1, 181}, {41, 122, 1, 182}, {42, 123, 1, 182}, {43, 124, 1, 182}, {2, 2, 1, 183}, {3, 2, 1, 184}, {112, 112, 1, 185}, {113, 113, 3, 185}, {114, 114, 3, 185}, {115, 115, 1, 185}, {116, 116, 3, 185}, {117, 117, 6, 185}, {118, 118, 3, 185}, {119, 119, 3, 185}, {120, 120, 3, 185}, {121, 121, 1, 185}, {32, 76, 1, 186}, {33, 77, 2, 186}, {34, 78, 1, 186}, {35, 79, 2, 186}, {36, 80, 2, 186}, {37, 81, 1, 186}, {14, 44, 1, 187}, {15, 45, 2, 187}, {16, 46, 1, 187}, {17, 47, 2, 187}, {18, 48, 2, 187}, {19, 49, 1, 187}, {0, 5, 1, 188}, {44, 44, 1, 189}, {45, 45, 2, 189}, {46, 46, 1, 189}, {47, 47, 2, 189}, {48, 48, 2, 189}, {49, 49, 1, 189}, {122, 122, 1, 190}, {123, 123, 1, 190}, {124, 124, 1, 190}, {26, 20, 1, 191}, {27, 21, 2, 191}, {28, 22, 1, 191}, {29, 23, 2, 191}, {30, 24, 2, 191}, {31, 25, 1, 191}, {122, 128, 1, 192}, {123, 129, 1, 192}, {124, 130, 1, 192}, {131, 76, 1, 193}, {132, 77, 2, 193}, {133, 78, 1, 193}, {134, 79, 2, 193}, {135, 80, 2, 193}, {136, 81, 1, 193}, {8, 128, 1, 194}, {9, 129, 1, 194}, {10, 130, 1, 194}, {8, 41, 1, 195}, {9, 42, 1, 195}, {10, 43, 1, 195}, {11, 122, 1, 196}, {12, 123, 1, 196}, {13, 124, 1, 196}, {14, 131, 1, 197}, {15, 132, 2, 197}, {16, 133, 1, 197}, {17, 134, 2, 197}, {18, 135, 2, 197}, {19, 136, 1, 197}, {2, 5, 1, 198}, {6, 6, 1, 199}, {0, 6, 1, 200}, {44, 32, 1, 201}, {45, 33, 2, 201}, {46, 34, 1, 201}, {47, 35, 2, 201}, {48, 36, 2, 201}, {49, 37, 1, 201}, {92, 137, 1, 202}, {93, 138, 3, 202}, {94, 139, 3, 202}, {95, 140, 1, 202}, {96, 141, 3, 202}, {97, 142, 6, 202}, {98, 143, 3, 202}, {99, 144, 3, 202}, {100, 145, 3, 202}, {101, 146, 1, 202}, {14, 14, 1, 203}, {15, 15, 2, 203}, {16, 16, 1, 203}, {17, 17, 2, 203}, {18, 18, 2, 203}, {19, 19, 1, 203}, {92, 102, 1, 204}, {93, 103, 3, 204}, {94, 104, 3, 204}, {95, 105, 1, 204}, {96, 106, 3, 204}, {97, 107, 6, 204}, {98, 108, 3, 204}, {99, 109, 3, 204}, {100, 110, 3, 204}, {101, 111, 1, 204}, {92, 56, 1, 205}, {93, 57, 3, 205}, {94, 58, 3, 205}, {95, 59, 1, 205}, {96, 60, 3, 205}, {97, 61, 6, 205}, {98, 62, 3, 205}, {99, 63, 3, 205}, {100, 64, 3, 205}, {101, 65, 1, 205}, {32, 32, 1, 206}, {33, 33, 2, 206}, {34, 34, 1, 206}, {35, 35, 2, 206}, {36, 36, 2, 206}, {37, 37, 1, 206}, {131, 131, 1, 207}, {132, 132, 2, 207}, {133, 133, 1, 207}, {134, 134, 2, 207}, {135, 135, 2, 207}, {136, 136, 1, 207}, {112, 147, 1, 208}, {113, 148, 3, 208}, {114, 149, 3, 208}, {115, 150, 1, 208}, {116, 151, 3, 208}, {117, 152, 6, 208}, {118, 153, 3, 208}, {119, 154, 3, 208}, {120, 155, 3, 208}, {121, 156, 1, 208}, {11, 157, 1, 209}, {12, 158, 1, 209}, {13, 159, 1, 209}, {5, 7, 1, 210}, {2, 1, 1, 211}, {112, 137, 1, 212}, {113, 138, 3, 212}, {114, 139, 3, 212}, {115, 140, 1, 212}, {116, 141, 3, 212}, {117, 142, 6, 212}, {118, 143, 3, 212}, {119, 144, 3, 212}, {120, 145, 3, 212}, {121, 146, 1, 212}, {4, 5, 1, 213}, {66, 82, 1, 214}, {67, 83, 3, 214}, {68, 84, 3, 214}, {69, 85, 1, 214}, {70, 86, 3, 214}, {71, 87, 6, 214}, {72, 88, 3, 214}, {73, 89, 3, 214}, {74, 90, 3, 214}, {75, 91, 1, 214}, {66, 102, 1, 215}, {67, 103, 3, 215}, {68, 104, 3, 215}, {69, 105, 1, 215}, {70, 106, 3, 215}, {71, 107, 6, 215}, {72, 108, 3, 215}, {73, 109, 3, 215}, {74, 110, 3, 215}, {75, 111, 1, 215}, {2, 7, 1, 216}, {4, 0, 1, 217}, {92, 82, 1, 218}, {93, 83, 3, 218}, {94, 84, 3, 218}, {95, 85, 1, 218}, {96, 86, 3, 218}, {97, 87, 6, 218}, {98, 88, 3, 218}, {99, 89, 3, 218}, {100, 90, 3, 218}, {101, 91, 1, 218}, {2, 6, 1, 219}, {41, 128, 1, 220}, {42, 129, 1, 220}, {43, 130, 1, 220}, {56, 56, 1, 221}, {57, 57, 3, 221}, {58, 58, 3, 221}, {59, 59, 1, 221}, {60, 60, 3, 221}, {61, 61, 6, 221}, {62, 62, 3, 221}, {63, 63, 3, 221}, {64, 64, 3, 221}, {65, 65, 1, 221}, {122, 38, 1, 222}, {123, 39, 1, 222}, {124, 40, 1, 222}, {8, 125, 1, 223}, {9, 126, 1, 223}, {10, 127, 1, 223}, {92, 147, 1, 224}, {93, 148, 3, 224}, {94, 149, 3, 224}, {95, 150, 1, 224}, {96, 151, 3, 224}, {97, 152, 6, 224}, {98, 153, 3, 224}, {99, 154, 3, 224}, {100, 155, 3, 224}, {101, 156, 1, 224}, {56, 147, 1, 225}, {57, 148, 3, 225}, {58, 149, 3, 225}, {59, 150, 1, 225}, {60, 151, 3, 225}, {61, 152, 6, 225}, {62, 153, 3, 225}, {63, 154, 3, 225}, {64, 155, 3, 225}, {65, 156, 1, 225}, {6, 7, 1, 226}, {0, 1, 1, 227}, {112, 56, 1, 228}, {113, 57, 3, 228}, {114, 58, 3, 228}, {115, 59, 1, 228}, {116, 60, 3, 228}, {117, 61, 6, 228}, {118, 62, 3, 228}, {119, 63, 3, 228}, {120, 64, 3, 228}, {121, 65, 1, 228}, {112, 82, 1, 229}, {113, 83, 3, 229}, {114, 84, 3, 229}, {115, 85, 1, 229}, {116, 86, 3, 229}, {117, 87, 6, 229}, {118, 88, 3, 229}, {119, 89, 3, 229}, {120, 90, 3, 229}, {121, 91, 1, 229}, {3, 0, 1, 230}, {3, 1, 1, 231}, {6, 5, 1, 232}, {6, 1, 1, 233}, {92, 66, 1, 234}, {93, 67, 3, 234}, {94, 68, 3, 234}, {95, 69, 1, 234}, {96, 70, 3, 234}, {97, 71, 6, 234}, {98, 72, 3, 234}, {99, 73, 3, 234}, {100, 74, 3, 234}, {101, 75, 1, 234}, {0, 0, 1, 235}, {8, 157, 1, 236}, {9, 158, 1, 236}, {10, 159, 1, 236}, {3, 3, 1, 237}, {41, 157, 1, 238}, {42, 158, 1, 238}, {43, 159, 1, 238}, {14, 32, 1, 239}, {15, 33, 2, 239}, {16, 34, 1, 239}, {17, 35, 2, 239}, {18, 36, 2, 239}, {19, 37, 1, 239}, {11, 125, 1, 240}, {12, 126, 1, 240}, {13, 127, 1, 240}, {112, 66, 1, 241}, {113, 67, 3, 241}, {114, 68, 3, 241}, {115, 69, 1, 241}, {116, 70, 3, 241}, {117, 71, 6, 241}, {118, 72, 3, 241}, {119, 73, 3, 241}, {120, 74, 3, 241}, {121, 75, 1, 241}, {38, 38, 1, 242}, {39, 39, 1, 242}, {40, 40, 1, 242}, {3, 5, 1, 243}, {4, 2, 1, 244}, {11, 38, 1, 245}, {12, 39, 1, 245}, {13, 40, 1, 245}, {26, 50, 1, 246}, {27, 51, 2, 246}, {28, 52, 1, 246}, {29, 53, 2, 246}, {30, 54, 2, 246}, {31, 55, 1, 246}, {32, 131, 1, 247}, {33, 132, 2, 247}, {34, 133, 1, 247}, {35, 134, 2, 247}, {36, 135, 2, 247}, {37, 136, 1, 247}, {8, 122, 1, 248}, {9, 123, 1, 248}, {10, 124, 1, 248}, {66, 66, 1, 249}, {67, 67, 3, 249}, {68, 68, 3, 249}, {69, 69, 1, 249}, {70, 70, 3, 249}, {71, 71, 6, 249}, {72, 72, 3, 249}, {73, 73, 3, 249}, {74, 74, 3, 249}, {75, 75, 1, 249}, {8, 8, 1, 250}, {9, 9, 1, 250}, {10, 10, 1, 250}, {56, 102, 1, 251}, {57, 103, 3, 251}, {58, 104, 3, 251}, {59, 105, 1, 251}, {60, 106, 3, 251}, {61, 107, 6, 251}, {62, 108, 3, 251}, {63, 109, 3, 251}, {64, 110, 3, 251}, {65, 111, 1, 251}, {26, 26, 1, 252}, {27, 27, 2, 252}, {28, 28, 1, 252}, {29, 29, 2, 252}, {30, 30, 2, 252}, {31, 31, 1, 252}, {44, 20, 1, 253}, {45, 21, 2, 253}, {46, 22, 1, 253}, {47, 23, 2, 253}, {48, 24, 2, 253}, {49, 25, 1, 253}, {26, 44, 1, 254}, {27, 45, 2, 254}, {28, 46, 1, 254}, {29, 47, 2, 254}, {30, 48, 2, 254}, {31, 49, 1, 254}, {128, 157, 1, 255}, {129, 158, 1, 255}, {130, 159, 1, 255}, {44, 131, 1, 256}, {45, 132, 2, 256}, {46, 133, 1, 256}, {47, 134, 2, 256}, {48, 135, 2, 256}, {49, 136, 1, 256}, {4, 3, 1, 257}, {41, 38, 1, 258}, {42, 39, 1, 258}, {43, 40, 1, 258}, {3, 7, 1, 259}, {5, 5, 1, 260}, {14, 26, 1, 261}, {15, 27, 2, 261}, {16, 28, 1, 261}, {17, 29, 2, 261}, {18, 30, 2, 261}, {19, 31, 1, 261}, {11, 128, 1, 262}, {12, 129, 1, 262}, {13, 130, 1, 262}, {41, 125, 1, 263}, {42, 126, 1, 263}, {43, 127, 1, 263}, {4, 7, 1, 264}, {112, 102, 1, 265}, {113, 103, 3, 265}, {114, 104, 3, 265}, {115, 105, 1, 265}, {116, 106, 3, 265}, {117, 107, 6, 265}, {118, 108, 3, 265}, {119, 109, 3, 265}, {120, 110, 3, 265}, {121, 111, 1, 265}, {32, 50, 1, 266}, {33, 51, 2, 266}, {34, 52, 1, 266}, {35, 53, 2, 266}, {36, 54, 2, 266}, {37, 55, 1, 266}, {4, 4, 1, 267}, {11, 11, 1, 268}, {12, 12, 1, 268}, {13, 13, 1, 268}, {4, 1, 1, 269}, {0, 2, 1, 270}, {122, 157, 1, 271}, {123, 158, 1, 271}, {124, 159, 1, 271}, {128, 38, 1, 272}, {129, 39, 1, 272}, {130, 40, 1, 272}, {26, 102, 1, 273}, {27, 103, 2, 273}, {28, 104, 1, 273}, {29, 106, 2, 273}, {30, 107, 2, 273}, {31, 109, 1, 273}, {26, 103, 1, 274}, {27, 104, 2, 274}, {28, 105, 1, 274}, {29, 107, 2, 274}, {30, 108, 2, 274}, {31, 110, 1, 274}, {26, 106, 1, 275}, {27, 107, 2, 275}, {28, 108, 1, 275}, {29, 109, 2, 275}, {30, 110, 2, 275}, {31, 111, 1, 275}, {41, 26, 1, 276}, {42, 27, 1, 276}, {43, 29, 1, 276}, {41, 27, 1, 277}, {42, 28, 1, 277}, {43, 30, 1, 277}, {41, 29, 1, 278}, {42, 30, 1, 278}, {43, 31, 1, 278}, {32, 56, 1, 279}, {33, 57, 2, 279}, {34, 58, 1, 279}, {35, 60, 2, 279}, {36, 61, 2, 279}, {37, 63, 1, 279}, {32, 57, 1, 280}, {33, 58, 2, 280}, {34, 59, 1, 280}, {35, 61, 2, 280}, {36, 62, 2, 280}, {37, 64, 1, 280}, {32, 60, 1, 281}, {33, 61, 2, 281}, {34, 62, 1, 281}, {35, 63, 2, 281}, {36, 64, 2, 281}, {37, 65, 1, 281}, {26, 44, 1, 282}, {27, 45, 1, 282}, {29, 47, 1, 282}, {26, 45, 1, 283}, {27, 46, 1, 283}, {29, 48, 1, 283}, {26, 47, 1, 284}, {27, 48, 1, 284}, {29, 49, 1, 284}, {27, 44, 1, 285}, {28, 45, 1, 285}, {30, 47, 1, 285}, {27, 45, 1, 286}, {28, 46, 1, 286}, {30, 48, 1, 286}, {27, 47, 1, 287}, {28, 48, 1, 287}, {30, 49, 1, 287}, {29, 44, 1, 288}, {30, 45, 1, 288}, {31, 47, 1, 288}, {29, 45, 1, 289}, {30, 46, 1, 289}, {31, 48, 1, 289}, {29, 47, 1, 290}, {30, 48, 1, 290}, {31, 49, 1, 290}, {122, 14, 1, 291}, {123, 15, 1, 291}, {124, 17, 1, 291}, {122, 15, 1, 292}, {123, 16, 1, 292}, {124, 18, 1, 292}, {122, 17, 1, 293}, {123, 18, 1, 293}, {124, 19, 1, 293}, {11, 26, 1, 294}, {12, 27, 1, 294}, {13, 29, 1, 294}, {11, 27, 1, 295}, {12, 28, 1, 295}, {13, 30, 1, 295}, {11, 29, 1, 296}, {12, 30, 1, 296}, {13, 31, 1, 296}, {56, 66, 1, 297}, {57, 67, 2, 297}, {58, 68, 1, 297}, {60, 70, 2, 297}, {61, 71, 2, 297}, {63, 73, 1, 297}, {56, 67, 1, 298}, {57, 68, 2, 298}, {58, 69, 1, 298}, {60, 71, 2, 298}, {61, 72, 2, 298}, {63, 74, 1, 298}, {56, 70, 1, 299}, {57, 71, 2, 299}, {58, 72, 1, 299}, {60, 73, 2, 299}, {61, 74, 2, 299}, {63, 75, 1, 299}, {57, 66, 1, 300}, {58, 67, 2, 300}, {59, 68, 1, 300}, {61, 70, 2, 300}, {62, 71, 2, 300}, {64, 73, 1, 300}, {57, 67, 1, 301}, {58, 68, 2, 301}, {59, 69, 1, 301}, {61, 71, 2, 301}, {62, 72, 2, 301}, {64, 74, 1, 301}, {57, 70, 1, 302}, {58, 71, 2, 302}, {59, 72, 1, 302}, {61, 73, 2, 302}, {62, 74, 2, 302}, {64, 75, 1, 302}, {60, 66, 1, 303}, {61, 67, 2, 303}, {62, 68, 1, 303}, {63, 70, 2, 303}, {64, 71, 2, 303}, {65, 73, 1, 303}, {60, 67, 1, 304}, {61, 68, 2, 304}, {62, 69, 1, 304}, {63, 71, 2, 304}, {64, 72, 2, 304}, {65, 74, 1, 304}, {60, 70, 1, 305}, {61, 71, 2, 305}, {62, 72, 1, 305}, {63, 73, 2, 305}, {64, 74, 2, 305}, {65, 75, 1, 305}, {14, 92, 1, 306}, {15, 93, 2, 306}, {16, 94, 1, 306}, {17, 96, 2, 306}, {18, 97, 2, 306}, {19, 99, 1, 306}, {14, 93, 1, 307}, {15, 94, 2, 307}, {16, 95, 1, 307}, {17, 97, 2, 307}, {18, 98, 2, 307}, {19, 100, 1, 307}, {14, 96, 1, 308}, {15, 97, 2, 308}, {16, 98, 1, 308}, {17, 99, 2, 308}, {18, 100, 2, 308}, {19, 101, 1, 308}, {26, 56, 1, 309}, {27, 57, 2, 309}, {28, 58, 1, 309}, {29, 60, 2, 309}, {30, 61, 2, 309}, {31, 63, 1, 309}, {26, 57, 1, 310}, {27, 58, 2, 310}, {28, 59, 1, 310}, {29, 61, 2, 310}, {30, 62, 2, 310}, {31, 64, 1, 310}, {26, 60, 1, 311}, {27, 61, 2, 311}, {28, 62, 1, 311}, {29, 63, 2, 311}, {30, 64, 2, 311}, {31, 65, 1, 311}, {112, 112, 1, 312}, {113, 113, 2, 312}, {114, 114, 1, 312}, {116, 116, 2, 312}, {117, 117, 2, 312}, {119, 119, 1, 312}, {112, 113, 1, 313}, {113, 114, 2, 313}, {114, 115, 1, 313}, {116, 117, 2, 313}, {117, 118, 2, 313}, {119, 120, 1, 313}, {112, 116, 1, 314}, {113, 117, 2, 314}, {114, 118, 1, 314}, {116, 119, 2, 314}, {117, 120, 2, 314}, {119, 121, 1, 314}, {113, 112, 1, 315}, {114, 113, 2, 315}, {115, 114, 1, 315}, {117, 116, 2, 315}, {118, 117, 2, 315}, {120, 119, 1, 315}, {113, 113, 1, 316}, {114, 114, 2, 316}, {115, 115, 1, 316}, {117, 117, 2, 316}, {118, 118, 2, 316}, {120, 120, 1, 316}, {113, 116, 1, 317}, {114, 117, 2, 317}, {115, 118, 1, 317}, {117, 119, 2, 317}, {118, 120, 2, 317}, {120, 121, 1, 317}, {116, 112, 1, 318}, {117, 113, 2, 318}, {118, 114, 1, 318}, {119, 116, 2, 318}, {120, 117, 2, 318}, {121, 119, 1, 318}, {116, 113, 1, 319}, {117, 114, 2, 319}, {118, 115, 1, 319}, {119, 117, 2, 319}, {120, 118, 2, 319}, {121, 120, 1, 319}, {116, 116, 1, 320}, {117, 117, 2, 320}, {118, 118, 1, 320}, {119, 119, 2, 320}, {120, 120, 2, 320}, {121, 121, 1, 320}, {122, 26, 1, 321}, {123, 27, 1, 321}, {124, 29, 1, 321}, {122, 27, 1, 322}, {123, 28, 1, 322}, {124, 30, 1, 322}, {122, 29, 1, 323}, {123, 30, 1, 323}, {124, 31, 1, 323}, {122, 44, 1, 324}, {123, 45, 1, 324}, {124, 47, 1, 324}, {122, 45, 1, 325}, {123, 46, 1, 325}, {124, 48, 1, 325}, {122, 47, 1, 326}, {123, 48, 1, 326}, {124, 49, 1, 326}, {92, 56, 1, 327}, {93, 57, 2, 327}, {94, 58, 1, 327}, {96, 60, 2, 327}, {97, 61, 2, 327}, {99, 63, 1, 327}, {92, 57, 1, 328}, {93, 58, 2, 328}, {94, 59, 1, 328}, {96, 61, 2, 328}, {97, 62, 2, 328}, {99, 64, 1, 328}, {92, 60, 1, 329}, {93, 61, 2, 329}, {94, 62, 1, 329}, {96, 63, 2, 329}, {97, 64, 2, 329}, {99, 65, 1, 329}, {93, 56, 1, 330}, {94, 57, 2, 330}, {95, 58, 1, 330}, {97, 60, 2, 330}, {98, 61, 2, 330}, {100, 63, 1, 330}, {93, 57, 1, 331}, {94, 58, 2, 331}, {95, 59, 1, 331}, {97, 61, 2, 331}, {98, 62, 2, 331}, {100, 64, 1, 331}, {93, 60, 1, 332}, {94, 61, 2, 332}, {95, 62, 1, 332}, {97, 63, 2, 332}, {98, 64, 2, 332}, {100, 65, 1, 332}, {96, 56, 1, 333}, {97, 57, 2, 333}, {98, 58, 1, 333}, {99, 60, 2, 333}, {100, 61, 2, 333}, {101, 63, 1, 333}, {96, 57, 1, 334}, {97, 58, 2, 334}, {98, 59, 1, 334}, {99, 61, 2, 334}, {100, 62, 2, 334}, {101, 64, 1, 334}, {96, 60, 1, 335}, {97, 61, 2, 335}, {98, 62, 1, 335}, {99, 63, 2, 335}, {100, 64, 2, 335}, {101, 65, 1, 335}, {26, 92, 1, 336}, {27, 93, 2, 336}, {28, 94, 1, 336}, {29, 96, 2, 336}, {30, 97, 2, 336}, {31, 99, 1, 336}, {26, 93, 1, 337}, {27, 94, 2, 337}, {28, 95, 1, 337}, {29, 97, 2, 337}, {30, 98, 2, 337}, {31, 100, 1, 337}, {26, 96, 1, 338}, {27, 97, 2, 338}, {28, 98, 1, 338}, {29, 99, 2, 338}, {30, 100, 2, 338}, {31, 101, 1, 338}, {26, 32, 1, 339}, {27, 33, 1, 339}, {29, 35, 1, 339}, {26, 33, 1, 340}, {27, 34, 1, 340}, {29, 36, 1, 340}, {26, 35, 1, 341}, {27, 36, 1, 341}, {29, 37, 1, 341}, {27, 32, 1, 342}, {28, 33, 1, 342}, {30, 35, 1, 342}, {27, 33, 1, 343}, {28, 34, 1, 343}, {30, 36, 1, 343}, {27, 35, 1, 344}, {28, 36, 1, 344}, {30, 37, 1, 344}, {29, 32, 1, 345}, {30, 33, 1, 345}, {31, 35, 1, 345}, {29, 33, 1, 346}, {30, 34, 1, 346}, {31, 36, 1, 346}, {29, 35, 1, 347}, {30, 36, 1, 347}, {31, 37, 1, 347}, {14, 66, 1, 348}, {15, 67, 2, 348}, {16, 68, 1, 348}, {17, 70, 2, 348}, {18, 71, 2, 348}, {19, 73, 1, 348}, {14, 67, 1, 349}, {15, 68, 2, 349}, {16, 69, 1, 349}, {17, 71, 2, 349}, {18, 72, 2, 349}, {19, 74, 1, 349}, {14, 70, 1, 350}, {15, 71, 2, 350}, {16, 72, 1, 350}, {17, 73, 2, 350}, {18, 74, 2, 350}, {19, 75, 1, 350}, {14, 44, 1, 351}, {15, 45, 1, 351}, {17, 47, 1, 351}, {14, 45, 1, 352}, {15, 46, 1, 352}, {17, 48, 1, 352}, {14, 47, 1, 353}, {15, 48, 1, 353}, {17, 49, 1, 353}, {15, 44, 1, 354}, {16, 45, 1, 354}, {18, 47, 1, 354}, {15, 45, 1, 355}, {16, 46, 1, 355}, {18, 48, 1, 355}, {15, 47, 1, 356}, {16, 48, 1, 356}, {18, 49, 1, 356}, {17, 44, 1, 357}, {18, 45, 1, 357}, {19, 47, 1, 357}, {17, 45, 1, 358}, {18, 46, 1, 358}, {19, 48, 1, 358}, {17, 47, 1, 359}, {18, 48, 1, 359}, {19, 49, 1, 359}, {11, 32, 1, 360}, {12, 33, 1, 360}, {13, 35, 1, 360}, {11, 33, 1, 361}, {12, 34, 1, 361}, {13, 36, 1, 361}, {11, 35, 1, 362}, {12, 36, 1, 362}, {13, 37, 1, 362}, {8, 32, 1, 363}, {9, 33, 1, 363}, {10, 35, 1, 363}, {8, 33, 1, 364}, {9, 34, 1, 364}, {10, 36, 1, 364}, {8, 35, 1, 365}, {9, 36, 1, 365}, {10, 37, 1, 365}, {8, 76, 1, 366}, {9, 77, 1, 366}, {10, 79, 1, 366}, {8, 77, 1, 367}, {9, 78, 1, 367}, {10, 80, 1, 367}, {8, 79, 1, 368}, {9, 80, 1, 368}, {10, 81, 1, 368}, {14, 102, 1, 369}, {15, 103, 2, 369}, {16, 104, 1, 369}, {17, 106, 2, 369}, {18, 107, 2, 369}, {19, 109, 1, 369}, {14, 103, 1, 370}, {15, 104, 2, 370}, {16, 105, 1, 370}, {17, 107, 2, 370}, {18, 108, 2, 370}, {19, 110, 1, 370}, {14, 106, 1, 371}, {15, 107, 2, 371}, {16, 108, 1, 371}, {17, 109, 2, 371}, {18, 110, 2, 371}, {19, 111, 1, 371}, {32, 66, 1, 372}, {33, 67, 2, 372}, {34, 68, 1, 372}, {35, 70, 2, 372}, {36, 71, 2, 372}, {37, 73, 1, 372}, {32, 67, 1, 373}, {33, 68, 2, 373}, {34, 69, 1, 373}, {35, 71, 2, 373}, {36, 72, 2, 373}, {37, 74, 1, 373}, {32, 70, 1, 374}, {33, 71, 2, 374}, {34, 72, 1, 374}, {35, 73, 2, 374}, {36, 74, 2, 374}, {37, 75, 1, 374}, {122, 32, 1, 375}, {123, 33, 1, 375}, {124, 35, 1, 375}, {122, 33, 1, 376}, {123, 34, 1, 376}, {124, 36, 1, 376}, {122, 35, 1, 377}, {123, 36, 1, 377}, {124, 37, 1, 377}, {44, 102, 1, 378}, {45, 103, 2, 378}, {46, 104, 1, 378}, {47, 106, 2, 378}, {48, 107, 2, 378}, {49, 109, 1, 378}, {44, 103, 1, 379}, {45, 104, 2, 379}, {46, 105, 1, 379}, {47, 107, 2, 379}, {48, 108, 2, 379}, {49, 110, 1, 379}, {44, 106, 1, 380}, {45, 107, 2, 380}, {46, 108, 1, 380}, {47, 109, 2, 380}, {48, 110, 2, 380}, {49, 111, 1, 380}, {92, 112, 1, 381}, {93, 113, 2, 381}, {94, 114, 1, 381}, {96, 116, 2, 381}, {97, 117, 2, 381}, {99, 119, 1, 381}, {92, 113, 1, 382}, {93, 114, 2, 382}, {94, 115, 1, 382}, {96, 117, 2, 382}, {97, 118, 2, 382}, {99, 120, 1, 382}, {92, 116, 1, 383}, {93, 117, 2, 383}, {94, 118, 1, 383}, {96, 119, 2, 383}, {97, 120, 2, 383}, {99, 121, 1, 383}, {93, 112, 1, 384}, {94, 113, 2, 384}, {95, 114, 1, 384}, {97, 116, 2, 384}, {98, 117, 2, 384}, {100, 119, 1, 384}, {93, 113, 1, 385}, {94, 114, 2, 385}, {95, 115, 1, 385}, {97, 117, 2, 385}, {98, 118, 2, 385}, {100, 120, 1, 385}, {93, 116, 1, 386}, {94, 117, 2, 386}, {95, 118, 1, 386}, {97, 119, 2, 386}, {98, 120, 2, 386}, {100, 121, 1, 386}, {96, 112, 1, 387}, {97, 113, 2, 387}, {98, 114, 1, 387}, {99, 116, 2, 387}, {100, 117, 2, 387}, {101, 119, 1, 387}, {96, 113, 1, 388}, {97, 114, 2, 388}, {98, 115, 1, 388}, {99, 117, 2, 388}, {100, 118, 2, 388}, {101, 120, 1, 388}, {96, 116, 1, 389}, {97, 117, 2, 389}, {98, 118, 1, 389}, {99, 119, 2, 389}, {100, 120, 2, 389}, {101, 121, 1, 389}, {131, 92, 1, 390}, {132, 93, 2, 390}, {133, 94, 1, 390}, {134, 96, 2, 390}, {135, 97, 2, 390}, {136, 99, 1, 390}, {131, 93, 1, 391}, {132, 94, 2, 391}, {133, 95, 1, 391}, {134, 97, 2, 391}, {135, 98, 2, 391}, {136, 100, 1, 391}, {131, 96, 1, 392}, {132, 97, 2, 392}, {133, 98, 1, 392}, {134, 99, 2, 392}, {135, 100, 2, 392}, {136, 101, 1, 392}, {131, 56, 1, 393}, {132, 57, 2, 393}, {133, 58, 1, 393}, {134, 60, 2, 393}, {135, 61, 2, 393}, {136, 63, 1, 393}, {131, 57, 1, 394}, {132, 58, 2, 394}, {133, 59, 1, 394}, {134, 61, 2, 394}, {135, 62, 2, 394}, {136, 64, 1, 394}, {131, 60, 1, 395}, {132, 61, 2, 395}, {133, 62, 1, 395}, {134, 63, 2, 395}, {135, 64, 2, 395}, {136, 65, 1, 395}, {38, 44, 1, 396}, {39, 45, 1, 396}, {40, 47, 1, 396}, {38, 45, 1, 397}, {39, 46, 1, 397}, {40, 48, 1, 397}, {38, 47, 1, 398}, {39, 48, 1, 398}, {40, 49, 1, 398}, {92, 92, 1, 399}, {93, 93, 2, 399}, {94, 94, 1, 399}, {96, 96, 2, 399}, {97, 97, 2, 399}, {99, 99, 1, 399}, {92, 93, 1, 400}, {93, 94, 2, 400}, {94, 95, 1, 400}, {96, 97, 2, 400}, {97, 98, 2, 400}, {99, 100, 1, 400}, {92, 96, 1, 401}, {93, 97, 2, 401}, {94, 98, 1, 401}, {96, 99, 2, 401}, {97, 100, 2, 401}, {99, 101, 1, 401}, {93, 92, 1, 402}, {94, 93, 2, 402}, {95, 94, 1, 402}, {97, 96, 2, 402}, {98, 97, 2, 402}, {100, 99, 1, 402}, {93, 93, 1, 403}, {94, 94, 2, 403}, {95, 95, 1, 403}, {97, 97, 2, 403}, {98, 98, 2, 403}, {100, 100, 1, 403}, {93, 96, 1, 404}, {94, 97, 2, 404}, {95, 98, 1, 404}, {97, 99, 2, 404}, {98, 100, 2, 404}, {100, 101, 1, 404}, {96, 92, 1, 405}, {97, 93, 2, 405}, {98, 94, 1, 405}, {99, 96, 2, 405}, {100, 97, 2, 405}, {101, 99, 1, 405}, {96, 93, 1, 406}, {97, 94, 2, 406}, {98, 95, 1, 406}, {99, 97, 2, 406}, {100, 98, 2, 406}, {101, 100, 1, 406}, {96, 96, 1, 407}, {97, 97, 2, 407}, {98, 98, 1, 407}, {99, 99, 2, 407}, {100, 100, 2, 407}, {101, 101, 1, 407}, {14, 147, 1, 408}, {15, 148, 2, 408}, {16, 149, 1, 408}, {17, 151, 2, 408}, {18, 152, 2, 408}, {19, 154, 1, 408}, {14, 148, 1, 409}, {15, 149, 2, 409}, {16, 150, 1, 409}, {17, 152, 2, 409}, {18, 153, 2, 409}, {19, 155, 1, 409}, {14, 151, 1, 410}, {15, 152, 2, 410}, {16, 153, 1, 410}, {17, 154, 2, 410}, {18, 155, 2, 410}, {19, 156, 1, 410}, {122, 131, 1, 411}, {123, 132, 1, 411}, {124, 134, 1, 411}, {122, 132, 1, 412}, {123, 133, 1, 412}, {124, 135, 1, 412}, {122, 134, 1, 413}, {123, 135, 1, 413}, {124, 136, 1, 413}, {11, 14, 1, 414}, {12, 15, 1, 414}, {13, 17, 1, 414}, {11, 15, 1, 415}, {12, 16, 1, 415}, {13, 18, 1, 415}, {11, 17, 1, 416}, {12, 18, 1, 416}, {13, 19, 1, 416}, {112, 56, 1, 417}, {113, 57, 2, 417}, {114, 58, 1, 417}, {116, 60, 2, 417}, {117, 61, 2, 417}, {119, 63, 1, 417}, {112, 57, 1, 418}, {113, 58, 2, 418}, {114, 59, 1, 418}, {116, 61, 2, 418}, {117, 62, 2, 418}, {119, 64, 1, 418}, {112, 60, 1, 419}, {113, 61, 2, 419}, {114, 62, 1, 419}, {116, 63, 2, 419}, {117, 64, 2, 419}, {119, 65, 1, 419}, {113, 56, 1, 420}, {114, 57, 2, 420}, {115, 58, 1, 420}, {117, 60, 2, 420}, {118, 61, 2, 420}, {120, 63, 1, 420}, {113, 57, 1, 421}, {114, 58, 2, 421}, {115, 59, 1, 421}, {117, 61, 2, 421}, {118, 62, 2, 421}, {120, 64, 1, 421}, {113, 60, 1, 422}, {114, 61, 2, 422}, {115, 62, 1, 422}, {117, 63, 2, 422}, {118, 64, 2, 422}, {120, 65, 1, 422}, {116, 56, 1, 423}, {117, 57, 2, 423}, {118, 58, 1, 423}, {119, 60, 2, 423}, {120, 61, 2, 423}, {121, 63, 1, 423}, {116, 57, 1, 424}, {117, 58, 2, 424}, {118, 59, 1, 424}, {119, 61, 2, 424}, {120, 62, 2, 424}, {121, 64, 1, 424}, {116, 60, 1, 425}, {117, 61, 2, 425}, {118, 62, 1, 425}, {119, 63, 2, 425}, {120, 64, 2, 425}, {121, 65, 1, 425}, {41, 20, 1, 426}, {42, 21, 1, 426}, {43, 23, 1, 426}, {41, 21, 1, 427}, {42, 22, 1, 427}, {43, 24, 1, 427}, {41, 23, 1, 428}, {42, 24, 1, 428}, {43, 25, 1, 428}, {128, 14, 1, 429}, {129, 15, 1, 429}, {130, 17, 1, 429}, {128, 15, 1, 430}, {129, 16, 1, 430}, {130, 18, 1, 430}, {128, 17, 1, 431}, {129, 18, 1, 431}, {130, 19, 1, 431}, {14, 26, 1, 432}, {15, 27, 1, 432}, {17, 29, 1, 432}, {14, 27, 1, 433}, {15, 28, 1, 433}, {17, 30, 1, 433}, {14, 29, 1, 434}, {15, 30, 1, 434}, {17, 31, 1, 434}, {15, 26, 1, 435}, {16, 27, 1, 435}, {18, 29, 1, 435}, {15, 27, 1, 436}, {16, 28, 1, 436}, {18, 30, 1, 436}, {15, 29, 1, 437}, {16, 30, 1, 437}, {18, 31, 1, 437}, {17, 26, 1, 438}, {18, 27, 1, 438}, {19, 29, 1, 438}, {17, 27, 1, 439}, {18, 28, 1, 439}, {19, 30, 1, 439}, {17, 29, 1, 440}, {18, 30, 1, 440}, {19, 31, 1, 440}, {32, 92, 1, 441}, {33, 93, 2, 441}, {34, 94, 1, 441}, {35, 96, 2, 441}, {36, 97, 2, 441}, {37, 99, 1, 441}, {32, 93, 1, 442}, {33, 94, 2, 442}, {34, 95, 1, 442}, {35, 97, 2, 442}, {36, 98, 2, 442}, {37, 100, 1, 442}, {32, 96, 1, 443}, {33, 97, 2, 443}, {34, 98, 1, 443}, {35, 99, 2, 443}, {36, 100, 2, 443}, {37, 101, 1, 443}, {44, 56, 1, 444}, {45, 57, 2, 444}, {46, 58, 1, 444}, {47, 60, 2, 444}, {48, 61, 2, 444}, {49, 63, 1, 444}, {44, 57, 1, 445}, {45, 58, 2, 445}, {46, 59, 1, 445}, {47, 61, 2, 445}, {48, 62, 2, 445}, {49, 64, 1, 445}, {44, 60, 1, 446}, {45, 61, 2, 446}, {46, 62, 1, 446}, {47, 63, 2, 446}, {48, 64, 2, 446}, {49, 65, 1, 446}, {26, 66, 1, 447}, {27, 67, 2, 447}, {28, 68, 1, 447}, {29, 70, 2, 447}, {30, 71, 2, 447}, {31, 73, 1, 447}, {26, 67, 1, 448}, {27, 68, 2, 448}, {28, 69, 1, 448}, {29, 71, 2, 448}, {30, 72, 2, 448}, {31, 74, 1, 448}, {26, 70, 1, 449}, {27, 71, 2, 449}, {28, 72, 1, 449}, {29, 73, 2, 449}, {30, 74, 2, 449}, {31, 75, 1, 449}, {92, 66, 1, 450}, {93, 67, 2, 450}, {94, 68, 1, 450}, {96, 70, 2, 450}, {97, 71, 2, 450}, {99, 73, 1, 450}, {92, 67, 1, 451}, {93, 68, 2, 451}, {94, 69, 1, 451}, {96, 71, 2, 451}, {97, 72, 2, 451}, {99, 74, 1, 451}, {92, 70, 1, 452}, {93, 71, 2, 452}, {94, 72, 1, 452}, {96, 73, 2, 452}, {97, 74, 2, 452}, {99, 75, 1, 452}, {93, 66, 1, 453}, {94, 67, 2, 453}, {95, 68, 1, 453}, {97, 70, 2, 453}, {98, 71, 2, 453}, {100, 73, 1, 453}, {93, 67, 1, 454}, {94, 68, 2, 454}, {95, 69, 1, 454}, {97, 71, 2, 454}, {98, 72, 2, 454}, {100, 74, 1, 454}, {93, 70, 1, 455}, {94, 71, 2, 455}, {95, 72, 1, 455}, {97, 73, 2, 455}, {98, 74, 2, 455}, {100, 75, 1, 455}, {96, 66, 1, 456}, {97, 67, 2, 456}, {98, 68, 1, 456}, {99, 70, 2, 456}, {100, 71, 2, 456}, {101, 73, 1, 456}, {96, 67, 1, 457}, {97, 68, 2, 457}, {98, 69, 1, 457}, {99, 71, 2, 457}, {100, 72, 2, 457}, {101, 74, 1, 457}, {96, 70, 1, 458}, {97, 71, 2, 458}, {98, 72, 1, 458}, {99, 73, 2, 458}, {100, 74, 2, 458}, {101, 75, 1, 458}, {50, 92, 1, 459}, {51, 93, 2, 459}, {52, 94, 1, 459}, {53, 96, 2, 459}, {54, 97, 2, 459}, {55, 99, 1, 459}, {50, 93, 1, 460}, {51, 94, 2, 460}, {52, 95, 1, 460}, {53, 97, 2, 460}, {54, 98, 2, 460}, {55, 100, 1, 460}, {50, 96, 1, 461}, {51, 97, 2, 461}, {52, 98, 1, 461}, {53, 99, 2, 461}, {54, 100, 2, 461}, {55, 101, 1, 461}, {26, 112, 1, 462}, {27, 113, 2, 462}, {28, 114, 1, 462}, {29, 116, 2, 462}, {30, 117, 2, 462}, {31, 119, 1, 462}, {26, 113, 1, 463}, {27, 114, 2, 463}, {28, 115, 1, 463}, {29, 117, 2, 463}, {30, 118, 2, 463}, {31, 120, 1, 463}, {26, 116, 1, 464}, {27, 117, 2, 464}, {28, 118, 1, 464}, {29, 119, 2, 464}, {30, 120, 2, 464}, {31, 121, 1, 464}, {92, 102, 1, 465}, {93, 103, 2, 465}, {94, 104, 1, 465}, {96, 106, 2, 465}, {97, 107, 2, 465}, {99, 109, 1, 465}, {92, 103, 1, 466}, {93, 104, 2, 466}, {94, 105, 1, 466}, {96, 107, 2, 466}, {97, 108, 2, 466}, {99, 110, 1, 466}, {92, 106, 1, 467}, {93, 107, 2, 467}, {94, 108, 1, 467}, {96, 109, 2, 467}, {97, 110, 2, 467}, {99, 111, 1, 467}, {93, 102, 1, 468}, {94, 103, 2, 468}, {95, 104, 1, 468}, {97, 106, 2, 468}, {98, 107, 2, 468}, {100, 109, 1, 468}, {93, 103, 1, 469}, {94, 104, 2, 469}, {95, 105, 1, 469}, {97, 107, 2, 469}, {98, 108, 2, 469}, {100, 110, 1, 469}, {93, 106, 1, 470}, {94, 107, 2, 470}, {95, 108, 1, 470}, {97, 109, 2, 470}, {98, 110, 2, 470}, {100, 111, 1, 470}, {96, 102, 1, 471}, {97, 103, 2, 471}, {98, 104, 1, 471}, {99, 106, 2, 471}, {100, 107, 2, 471}, {101, 109, 1, 471}, {96, 103, 1, 472}, {97, 104, 2, 472}, {98, 105, 1, 472}, {99, 107, 2, 472}, {100, 108, 2, 472}, {101, 110, 1, 472}, {96, 106, 1, 473}, {97, 107, 2, 473}, {98, 108, 1, 473}, {99, 109, 2, 473}, {100, 110, 2, 473}, {101, 111, 1, 473}, {8, 44, 1, 474}, {9, 45, 1, 474}, {10, 47, 1, 474}, {8, 45, 1, 475}, {9, 46, 1, 475}, {10, 48, 1, 475}, {8, 47, 1, 476}, {9, 48, 1, 476}, {10, 49, 1, 476}, {8, 26, 1, 477}, {9, 27, 1, 477}, {10, 29, 1, 477}, {8, 27, 1, 478}, {9, 28, 1, 478}, {10, 30, 1, 478}, {8, 29, 1, 479}, {9, 30, 1, 479}, {10, 31, 1, 479}, {11, 131, 1, 480}, {12, 132, 1, 480}, {13, 134, 1, 480}, {11, 132, 1, 481}, {12, 133, 1, 481}, {13, 135, 1, 481}, {11, 134, 1, 482}, {12, 135, 1, 482}, {13, 136, 1, 482}, {14, 131, 1, 483}, {15, 132, 1, 483}, {17, 134, 1, 483}, {14, 132, 1, 484}, {15, 133, 1, 484}, {17, 135, 1, 484}, {14, 134, 1, 485}, {15, 135, 1, 485}, {17, 136, 1, 485}, {15, 131, 1, 486}, {16, 132, 1, 486}, {18, 134, 1, 486}, {15, 132, 1, 487}, {16, 133, 1, 487}, {18, 135, 1, 487}, {15, 134, 1, 488}, {16, 135, 1, 488}, {18, 136, 1, 488}, {17, 131, 1, 489}, {18, 132, 1, 489}, {19, 134, 1, 489}, {17, 132, 1, 490}, {18, 133, 1, 490}, {19, 135, 1, 490}, {17, 134, 1, 491}, {18, 135, 1, 491}, {19, 136, 1, 491}, {56, 102, 1, 492}, {57, 103, 2, 492}, {58, 104, 1, 492}, {60, 106, 2, 492}, {61, 107, 2, 492}, {63, 109, 1, 492}, {56, 103, 1, 493}, {57, 104, 2, 493}, {58, 105, 1, 493}, {60, 107, 2, 493}, {61, 108, 2, 493}, {63, 110, 1, 493}, {56, 106, 1, 494}, {57, 107, 2, 494}, {58, 108, 1, 494}, {60, 109, 2, 494}, {61, 110, 2, 494}, {63, 111, 1, 494}, {57, 102, 1, 495}, {58, 103, 2, 495}, {59, 104, 1, 495}, {61, 106, 2, 495}, {62, 107, 2, 495}, {64, 109, 1, 495}, {57, 103, 1, 496}, {58, 104, 2, 496}, {59, 105, 1, 496}, {61, 107, 2, 496}, {62, 108, 2, 496}, {64, 110, 1, 496}, {57, 106, 1, 497}, {58, 107, 2, 497}, {59, 108, 1, 497}, {61, 109, 2, 497}, {62, 110, 2, 497}, {64, 111, 1, 497}, {60, 102, 1, 498}, {61, 103, 2, 498}, {62, 104, 1, 498}, {63, 106, 2, 498}, {64, 107, 2, 498}, {65, 109, 1, 498}, {60, 103, 1, 499}, {61, 104, 2, 499}, {62, 105, 1, 499}, {63, 107, 2, 499}, {64, 108, 2, 499}, {65, 110, 1, 499}, {60, 106, 1, 500}, {61, 107, 2, 500}, {62, 108, 1, 500}, {63, 109, 2, 500}, {64, 110, 2, 500}, {65, 111, 1, 500}, {112, 82, 1, 501}, {113, 83, 2, 501}, {114, 84, 1, 501}, {116, 86, 2, 501}, {117, 87, 2, 501}, {119, 89, 1, 501}, {112, 83, 1, 502}, {113, 84, 2, 502}, {114, 85, 1, 502}, {116, 87, 2, 502}, {117, 88, 2, 502}, {119, 90, 1, 502}, {112, 86, 1, 503}, {113, 87, 2, 503}, {114, 88, 1, 503}, {116, 89, 2, 503}, {117, 90, 2, 503}, {119, 91, 1, 503}, {113, 82, 1, 504}, {114, 83, 2, 504}, {115, 84, 1, 504}, {117, 86, 2, 504}, {118, 87, 2, 504}, {120, 89, 1, 504}, {113, 83, 1, 505}, {114, 84, 2, 505}, {115, 85, 1, 505}, {117, 87, 2, 505}, {118, 88, 2, 505}, {120, 90, 1, 505}, {113, 86, 1, 506}, {114, 87, 2, 506}, {115, 88, 1, 506}, {117, 89, 2, 506}, {118, 90, 2, 506}, {120, 91, 1, 506}, {116, 82, 1, 507}, {117, 83, 2, 507}, {118, 84, 1, 507}, {119, 86, 2, 507}, {120, 87, 2, 507}, {121, 89, 1, 507}, {116, 83, 1, 508}, {117, 84, 2, 508}, {118, 85, 1, 508}, {119, 87, 2, 508}, {120, 88, 2, 508}, {121, 90, 1, 508}, {116, 86, 1, 509}, {117, 87, 2, 509}, {118, 88, 1, 509}, {119, 89, 2, 509}, {120, 90, 2, 509}, {121, 91, 1, 509}, {131, 112, 1, 510}, {132, 113, 2, 510}, {133, 114, 1, 510}, {134, 116, 2, 510}, {135, 117, 2, 510}, {136, 119, 1, 510}, {131, 113, 1, 511}, {132, 114, 2, 511}, {133, 115, 1, 511}, {134, 117, 2, 511}, {135, 118, 2, 511}, {136, 120, 1, 511}, {131, 116, 1, 512}, {132, 117, 2, 512}, {133, 118, 1, 512}, {134, 119, 2, 512}, {135, 120, 2, 512}, {136, 121, 1, 512}, {14, 112, 1, 513}, {15, 113, 2, 513}, {16, 114, 1, 513}, {17, 116, 2, 513}, {18, 117, 2, 513}, {19, 119, 1, 513}, {14, 113, 1, 514}, {15, 114, 2, 514}, {16, 115, 1, 514}, {17, 117, 2, 514}, {18, 118, 2, 514}, {19, 120, 1, 514}, {14, 116, 1, 515}, {15, 117, 2, 515}, {16, 118, 1, 515}, {17, 119, 2, 515}, {18, 120, 2, 515}, {19, 121, 1, 515}, {44, 92, 1, 516}, {45, 93, 2, 516}, {46, 94, 1, 516}, {47, 96, 2, 516}, {48, 97, 2, 516}, {49, 99, 1, 516}, {44, 93, 1, 517}, {45, 94, 2, 517}, {46, 95, 1, 517}, {47, 97, 2, 517}, {48, 98, 2, 517}, {49, 100, 1, 517}, {44, 96, 1, 518}, {45, 97, 2, 518}, {46, 98, 1, 518}, {47, 99, 2, 518}, {48, 100, 2, 518}, {49, 101, 1, 518}, {11, 44, 1, 519}, {12, 45, 1, 519}, {13, 47, 1, 519}, {11, 45, 1, 520}, {12, 46, 1, 520}, {13, 48, 1, 520}, {11, 47, 1, 521}, {12, 48, 1, 521}, {13, 49, 1, 521}, {14, 56, 1, 522}, {15, 57, 2, 522}, {16, 58, 1, 522}, {17, 60, 2, 522}, {18, 61, 2, 522}, {19, 63, 1, 522}, {14, 57, 1, 523}, {15, 58, 2, 523}, {16, 59, 1, 523}, {17, 61, 2, 523}, {18, 62, 2, 523}, {19, 64, 1, 523}, {14, 60, 1, 524}, {15, 61, 2, 524}, {16, 62, 1, 524}, {17, 63, 2, 524}, {18, 64, 2, 524}, {19, 65, 1, 524}, {76, 92, 1, 525}, {77, 93, 2, 525}, {78, 94, 1, 525}, {79, 96, 2, 525}, {80, 97, 2, 525}, {81, 99, 1, 525}, {76, 93, 1, 526}, {77, 94, 2, 526}, {78, 95, 1, 526}, {79, 97, 2, 526}, {80, 98, 2, 526}, {81, 100, 1, 526}, {76, 96, 1, 527}, {77, 97, 2, 527}, {78, 98, 1, 527}, {79, 99, 2, 527}, {80, 100, 2, 527}, {81, 101, 1, 527}, {41, 76, 1, 528}, {42, 77, 1, 528}, {43, 79, 1, 528}, {41, 77, 1, 529}, {42, 78, 1, 529}, {43, 80, 1, 529}, {41, 79, 1, 530}, {42, 80, 1, 530}, {43, 81, 1, 530}, {44, 112, 1, 531}, {45, 113, 2, 531}, {46, 114, 1, 531}, {47, 116, 2, 531}, {48, 117, 2, 531}, {49, 119, 1, 531}, {44, 113, 1, 532}, {45, 114, 2, 532}, {46, 115, 1, 532}, {47, 117, 2, 532}, {48, 118, 2, 532}, {49, 120, 1, 532}, {44, 116, 1, 533}, {45, 117, 2, 533}, {46, 118, 1, 533}, {47, 119, 2, 533}, {48, 120, 2, 533}, {49, 121, 1, 533}, {41, 14, 1, 534}, {42, 15, 1, 534}, {43, 17, 1, 534}, {41, 15, 1, 535}, {42, 16, 1, 535}, {43, 18, 1, 535}, {41, 17, 1, 536}, {42, 18, 1, 536}, {43, 19, 1, 536}, {26, 147, 1, 537}, {27, 148, 2, 537}, {28, 149, 1, 537}, {29, 151, 2, 537}, {30, 152, 2, 537}, {31, 154, 1, 537}, {26, 148, 1, 538}, {27, 149, 2, 538}, {28, 150, 1, 538}, {29, 152, 2, 538}, {30, 153, 2, 538}, {31, 155, 1, 538}, {26, 151, 1, 539}, {27, 152, 2, 539}, {28, 153, 1, 539}, {29, 154, 2, 539}, {30, 155, 2, 539}, {31, 156, 1, 539}, {92, 82, 1, 540}, {93, 83, 2, 540}, {94, 84, 1, 540}, {96, 86, 2, 540}, {97, 87, 2, 540}, {99, 89, 1, 540}, {92, 83, 1, 541}, {93, 84, 2, 541}, {94, 85, 1, 541}, {96, 87, 2, 541}, {97, 88, 2, 541}, {99, 90, 1, 541}, {92, 86, 1, 542}, {93, 87, 2, 542}, {94, 88, 1, 542}, {96, 89, 2, 542}, {97, 90, 2, 542}, {99, 91, 1, 542}, {93, 82, 1, 543}, {94, 83, 2, 543}, {95, 84, 1, 543}, {97, 86, 2, 543}, {98, 87, 2, 543}, {100, 89, 1, 543}, {93, 83, 1, 544}, {94, 84, 2, 544}, {95, 85, 1, 544}, {97, 87, 2, 544}, {98, 88, 2, 544}, {100, 90, 1, 544}, {93, 86, 1, 545}, {94, 87, 2, 545}, {95, 88, 1, 545}, {97, 89, 2, 545}, {98, 90, 2, 545}, {100, 91, 1, 545}, {96, 82, 1, 546}, {97, 83, 2, 546}, {98, 84, 1, 546}, {99, 86, 2, 546}, {100, 87, 2, 546}, {101, 89, 1, 546}, {96, 83, 1, 547}, {97, 84, 2, 547}, {98, 85, 1, 547}, {99, 87, 2, 547}, {100, 88, 2, 547}, {101, 90, 1, 547}, {96, 86, 1, 548}, {97, 87, 2, 548}, {98, 88, 1, 548}, {99, 89, 2, 548}, {100, 90, 2, 548}, {101, 91, 1, 548}, {8, 50, 1, 549}, {9, 51, 1, 549}, {10, 53, 1, 549}, {8, 51, 1, 550}, {9, 52, 1, 550}, {10, 54, 1, 550}, {8, 53, 1, 551}, {9, 54, 1, 551}, {10, 55, 1, 551}, {112, 102, 1, 552}, {113, 103, 2, 552}, {114, 104, 1, 552}, {116, 106, 2, 552}, {117, 107, 2, 552}, {119, 109, 1, 552}, {112, 103, 1, 553}, {113, 104, 2, 553}, {114, 105, 1, 553}, {116, 107, 2, 553}, {117, 108, 2, 553}, {119, 110, 1, 553}, {112, 106, 1, 554}, {113, 107, 2, 554}, {114, 108, 1, 554}, {116, 109, 2, 554}, {117, 110, 2, 554}, {119, 111, 1, 554}, {113, 102, 1, 555}, {114, 103, 2, 555}, {115, 104, 1, 555}, {117, 106, 2, 555}, {118, 107, 2, 555}, {120, 109, 1, 555}, {113, 103, 1, 556}, {114, 104, 2, 556}, {115, 105, 1, 556}, {117, 107, 2, 556}, {118, 108, 2, 556}, {120, 110, 1, 556}, {113, 106, 1, 557}, {114, 107, 2, 557}, {115, 108, 1, 557}, {117, 109, 2, 557}, {118, 110, 2, 557}, {120, 111, 1, 557}, {116, 102, 1, 558}, {117, 103, 2, 558}, {118, 104, 1, 558}, {119, 106, 2, 558}, {120, 107, 2, 558}, {121, 109, 1, 558}, {116, 103, 1, 559}, {117, 104, 2, 559}, {118, 105, 1, 559}, {119, 107, 2, 559}, {120, 108, 2, 559}, {121, 110, 1, 559}, {116, 106, 1, 560}, {117, 107, 2, 560}, {118, 108, 1, 560}, {119, 109, 2, 560}, {120, 110, 2, 560}, {121, 111, 1, 560}, {8, 131, 1, 561}, {9, 132, 1, 561}, {10, 134, 1, 561}, {8, 132, 1, 562}, {9, 133, 1, 562}, {10, 135, 1, 562}, {8, 134, 1, 563}, {9, 135, 1, 563}, {10, 136, 1, 563}, {38, 14, 1, 564}, {39, 15, 1, 564}, {40, 17, 1, 564}, {38, 15, 1, 565}, {39, 16, 1, 565}, {40, 18, 1, 565}, {38, 17, 1, 566}, {39, 18, 1, 566}, {40, 19, 1, 566}, {41, 32, 1, 567}, {42, 33, 1, 567}, {43, 35, 1, 567}, {41, 33, 1, 568}, {42, 34, 1, 568}, {43, 36, 1, 568}, {41, 35, 1, 569}, {42, 36, 1, 569}, {43, 37, 1, 569}, {8, 14, 1, 570}, {9, 15, 1, 570}, {10, 17, 1, 570}, {8, 15, 1, 571}, {9, 16, 1, 571}, {10, 18, 1, 571}, {8, 17, 1, 572}, {9, 18, 1, 572}, {10, 19, 1, 572}, {44, 82, 1, 573}, {45, 83, 2, 573}, {46, 84, 1, 573}, {47, 86, 2, 573}, {48, 87, 2, 573}, {49, 89, 1, 573}, {44, 83, 1, 574}, {45, 84, 2, 574}, {46, 85, 1, 574}, {47, 87, 2, 574}, {48, 88, 2, 574}, {49, 90, 1, 574}, {44, 86, 1, 575}, {45, 87, 2, 575}, {46, 88, 1, 575}, {47, 89, 2, 575}, {48, 90, 2, 575}, {49, 91, 1, 575}, {44, 32, 1, 576}, {45, 33, 1, 576}, {47, 35, 1, 576}, {44, 33, 1, 577}, {45, 34, 1, 577}, {47, 36, 1, 577}, {44, 35, 1, 578}, {45, 36, 1, 578}, {47, 37, 1, 578}, {45, 32, 1, 579}, {46, 33, 1, 579}, {48, 35, 1, 579}, {45, 33, 1, 580}, {46, 34, 1, 580}, {48, 36, 1, 580}, {45, 35, 1, 581}, {46, 36, 1, 581}, {48, 37, 1, 581}, {47, 32, 1, 582}, {48, 33, 1, 582}, {49, 35, 1, 582}, {47, 33, 1, 583}, {48, 34, 1, 583}, {49, 36, 1, 583}, {47, 35, 1, 584}, {48, 36, 1, 584}, {49, 37, 1, 584}, {50, 112, 1, 585}, {51, 113, 2, 585}, {52, 114, 1, 585}, {53, 116, 2, 585}, {54, 117, 2, 585}, {55, 119, 1, 585}, {50, 113, 1, 586}, {51, 114, 2, 586}, {52, 115, 1, 586}, {53, 117, 2, 586}, {54, 118, 2, 586}, {55, 120, 1, 586}, {50, 116, 1, 587}, {51, 117, 2, 587}, {52, 118, 1, 587}, {53, 119, 2, 587}, {54, 120, 2, 587}, {55, 121, 1, 587}, {131, 66, 1, 588}, {132, 67, 2, 588}, {133, 68, 1, 588}, {134, 70, 2, 588}, {135, 71, 2, 588}, {136, 73, 1, 588}, {131, 67, 1, 589}, {132, 68, 2, 589}, {133, 69, 1, 589}, {134, 71, 2, 589}, {135, 72, 2, 589}, {136, 74, 1, 589}, {131, 70, 1, 590}, {132, 71, 2, 590}, {133, 72, 1, 590}, {134, 73, 2, 590}, {135, 74, 2, 590}, {136, 75, 1, 590}, {92, 147, 1, 591}, {93, 148, 2, 591}, {94, 149, 1, 591}, {96, 151, 2, 591}, {97, 152, 2, 591}, {99, 154, 1, 591}, {92, 148, 1, 592}, {93, 149, 2, 592}, {94, 150, 1, 592}, {96, 152, 2, 592}, {97, 153, 2, 592}, {99, 155, 1, 592}, {92, 151, 1, 593}, {93, 152, 2, 593}, {94, 153, 1, 593}, {96, 154, 2, 593}, {97, 155, 2, 593}, {99, 156, 1, 593}, {93, 147, 1, 594}, {94, 148, 2, 594}, {95, 149, 1, 594}, {97, 151, 2, 594}, {98, 152, 2, 594}, {100, 154, 1, 594}, {93, 148, 1, 595}, {94, 149, 2, 595}, {95, 150, 1, 595}, {97, 152, 2, 595}, {98, 153, 2, 595}, {100, 155, 1, 595}, {93, 151, 1, 596}, {94, 152, 2, 596}, {95, 153, 1, 596}, {97, 154, 2, 596}, {98, 155, 2, 596}, {100, 156, 1, 596}, {96, 147, 1, 597}, {97, 148, 2, 597}, {98, 149, 1, 597}, {99, 151, 2, 597}, {100, 152, 2, 597}, {101, 154, 1, 597}, {96, 148, 1, 598}, {97, 149, 2, 598}, {98, 150, 1, 598}, {99, 152, 2, 598}, {100, 153, 2, 598}, {101, 155, 1, 598}, {96, 151, 1, 599}, {97, 152, 2, 599}, {98, 153, 1, 599}, {99, 154, 2, 599}, {100, 155, 2, 599}, {101, 156, 1, 599}, {112, 66, 1, 600}, {113, 67, 2, 600}, {114, 68, 1, 600}, {116, 70, 2, 600}, {117, 71, 2, 600}, {119, 73, 1, 600}, {112, 67, 1, 601}, {113, 68, 2, 601}, {114, 69, 1, 601}, {116, 71, 2, 601}, {117, 72, 2, 601}, {119, 74, 1, 601}, {112, 70, 1, 602}, {113, 71, 2, 602}, {114, 72, 1, 602}, {116, 73, 2, 602}, {117, 74, 2, 602}, {119, 75, 1, 602}, {113, 66, 1, 603}, {114, 67, 2, 603}, {115, 68, 1, 603}, {117, 70, 2, 603}, {118, 71, 2, 603}, {120, 73, 1, 603}, {113, 67, 1, 604}, {114, 68, 2, 604}, {115, 69, 1, 604}, {117, 71, 2, 604}, {118, 72, 2, 604}, {120, 74, 1, 604}, {113, 70, 1, 605}, {114, 71, 2, 605}, {115, 72, 1, 605}, {117, 73, 2, 605}, {118, 74, 2, 605}, {120, 75, 1, 605}, {116, 66, 1, 606}, {117, 67, 2, 606}, {118, 68, 1, 606}, {119, 70, 2, 606}, {120, 71, 2, 606}, {121, 73, 1, 606}, {116, 67, 1, 607}, {117, 68, 2, 607}, {118, 69, 1, 607}, {119, 71, 2, 607}, {120, 72, 2, 607}, {121, 74, 1, 607}, {116, 70, 1, 608}, {117, 71, 2, 608}, {118, 72, 1, 608}, {119, 73, 2, 608}, {120, 74, 2, 608}, {121, 75, 1, 608}, {32, 112, 1, 609}, {33, 113, 2, 609}, {34, 114, 1, 609}, {35, 116, 2, 609}, {36, 117, 2, 609}, {37, 119, 1, 609}, {32, 113, 1, 610}, {33, 114, 2, 610}, {34, 115, 1, 610}, {35, 117, 2, 610}, {36, 118, 2, 610}, {37, 120, 1, 610}, {32, 116, 1, 611}, {33, 117, 2, 611}, {34, 118, 1, 611}, {35, 119, 2, 611}, {36, 120, 2, 611}, {37, 121, 1, 611}, {76, 56, 1, 612}, {77, 57, 2, 612}, {78, 58, 1, 612}, {79, 60, 2, 612}, {80, 61, 2, 612}, {81, 63, 1, 612}, {76, 57, 1, 613}, {77, 58, 2, 613}, {78, 59, 1, 613}, {79, 61, 2, 613}, {80, 62, 2, 613}, {81, 64, 1, 613}, {76, 60, 1, 614}, {77, 61, 2, 614}, {78, 62, 1, 614}, {79, 63, 2, 614}, {80, 64, 2, 614}, {81, 65, 1, 614}, {44, 66, 1, 615}, {45, 67, 2, 615}, {46, 68, 1, 615}, {47, 70, 2, 615}, {48, 71, 2, 615}, {49, 73, 1, 615}, {44, 67, 1, 616}, {45, 68, 2, 616}, {46, 69, 1, 616}, {47, 71, 2, 616}, {48, 72, 2, 616}, {49, 74, 1, 616}, {44, 70, 1, 617}, {45, 71, 2, 617}, {46, 72, 1, 617}, {47, 73, 2, 617}, {48, 74, 2, 617}, {49, 75, 1, 617}, {56, 56, 1, 618}, {57, 57, 2, 618}, {58, 58, 1, 618}, {60, 60, 2, 618}, {61, 61, 2, 618}, {63, 63, 1, 618}, {56, 57, 1, 619}, {57, 58, 2, 619}, {58, 59, 1, 619}, {60, 61, 2, 619}, {61, 62, 2, 619}, {63, 64, 1, 619}, {56, 60, 1, 620}, {57, 61, 2, 620}, {58, 62, 1, 620}, {60, 63, 2, 620}, {61, 64, 2, 620}, {63, 65, 1, 620}, {57, 56, 1, 621}, {58, 57, 2, 621}, {59, 58, 1, 621}, {61, 60, 2, 621}, {62, 61, 2, 621}, {64, 63, 1, 621}, {57, 57, 1, 622}, {58, 58, 2, 622}, {59, 59, 1, 622}, {61, 61, 2, 622}, {62, 62, 2, 622}, {64, 64, 1, 622}, {57, 60, 1, 623}, {58, 61, 2, 623}, {59, 62, 1, 623}, {61, 63, 2, 623}, {62, 64, 2, 623}, {64, 65, 1, 623}, {60, 56, 1, 624}, {61, 57, 2, 624}, {62, 58, 1, 624}, {63, 60, 2, 624}, {64, 61, 2, 624}, {65, 63, 1, 624}, {60, 57, 1, 625}, {61, 58, 2, 625}, {62, 59, 1, 625}, {63, 61, 2, 625}, {64, 62, 2, 625}, {65, 64, 1, 625}, {60, 60, 1, 626}, {61, 61, 2, 626}, {62, 62, 1, 626}, {63, 63, 2, 626}, {64, 64, 2, 626}, {65, 65, 1, 626}, {14, 82, 1, 627}, {15, 83, 2, 627}, {16, 84, 1, 627}, {17, 86, 2, 627}, {18, 87, 2, 627}, {19, 89, 1, 627}, {14, 83, 1, 628}, {15, 84, 2, 628}, {16, 85, 1, 628}, {17, 87, 2, 628}, {18, 88, 2, 628}, {19, 90, 1, 628}, {14, 86, 1, 629}, {15, 87, 2, 629}, {16, 88, 1, 629}, {17, 89, 2, 629}, {18, 90, 2, 629}, {19, 91, 1, 629}, {66, 66, 1, 630}, {67, 67, 2, 630}, {68, 68, 1, 630}, {70, 70, 2, 630}, {71, 71, 2, 630}, {73, 73, 1, 630}, {66, 67, 1, 631}, {67, 68, 2, 631}, {68, 69, 1, 631}, {70, 71, 2, 631}, {71, 72, 2, 631}, {73, 74, 1, 631}, {66, 70, 1, 632}, {67, 71, 2, 632}, {68, 72, 1, 632}, {70, 73, 2, 632}, {71, 74, 2, 632}, {73, 75, 1, 632}, {67, 66, 1, 633}, {68, 67, 2, 633}, {69, 68, 1, 633}, {71, 70, 2, 633}, {72, 71, 2, 633}, {74, 73, 1, 633}, {67, 67, 1, 634}, {68, 68, 2, 634}, {69, 69, 1, 634}, {71, 71, 2, 634}, {72, 72, 2, 634}, {74, 74, 1, 634}, {67, 70, 1, 635}, {68, 71, 2, 635}, {69, 72, 1, 635}, {71, 73, 2, 635}, {72, 74, 2, 635}, {74, 75, 1, 635}, {70, 66, 1, 636}, {71, 67, 2, 636}, {72, 68, 1, 636}, {73, 70, 2, 636}, {74, 71, 2, 636}, {75, 73, 1, 636}, {70, 67, 1, 637}, {71, 68, 2, 637}, {72, 69, 1, 637}, {73, 71, 2, 637}, {74, 72, 2, 637}, {75, 74, 1, 637}, {70, 70, 1, 638}, {71, 71, 2, 638}, {72, 72, 1, 638}, {73, 73, 2, 638}, {74, 74, 2, 638}, {75, 75, 1, 638}, {76, 112, 1, 639}, {77, 113, 2, 639}, {78, 114, 1, 639}, {79, 116, 2, 639}, {80, 117, 2, 639}, {81, 119, 1, 639}, {76, 113, 1, 640}, {77, 114, 2, 640}, {78, 115, 1, 640}, {79, 117, 2, 640}, {80, 118, 2, 640}, {81, 120, 1, 640}, {76, 116, 1, 641}, {77, 117, 2, 641}, {78, 118, 1, 641}, {79, 119, 2, 641}, {80, 120, 2, 641}, {81, 121, 1, 641}, {26, 82, 1, 642}, {27, 83, 2, 642}, {28, 84, 1, 642}, {29, 86, 2, 642}, {30, 87, 2, 642}, {31, 89, 1, 642}, {26, 83, 1, 643}, {27, 84, 2, 643}, {28, 85, 1, 643}, {29, 87, 2, 643}, {30, 88, 2, 643}, {31, 90, 1, 643}, {26, 86, 1, 644}, {27, 87, 2, 644}, {28, 88, 1, 644}, {29, 89, 2, 644}, {30, 90, 2, 644}, {31, 91, 1, 644}, {8, 20, 1, 645}, {9, 21, 1, 645}, {10, 23, 1, 645}, {8, 21, 1, 646}, {9, 22, 1, 646}, {10, 24, 1, 646}, {8, 23, 1, 647}, {9, 24, 1, 647}, {10, 25, 1, 647}, {41, 50, 1, 648}, {42, 51, 1, 648}, {43, 53, 1, 648}, {41, 51, 1, 649}, {42, 52, 1, 649}, {43, 54, 1, 649}, {41, 53, 1, 650}, {42, 54, 1, 650}, {43, 55, 1, 650}, {14, 14, 1, 651}, {15, 15, 1, 651}, {17, 17, 1, 651}, {14, 15, 1, 652}, {15, 16, 1, 652}, {17, 18, 1, 652}, {14, 17, 1, 653}, {15, 18, 1, 653}, {17, 19, 1, 653}, {15, 14, 1, 654}, {16, 15, 1, 654}, {18, 17, 1, 654}, {15, 15, 1, 655}, {16, 16, 1, 655}, {18, 18, 1, 655}, {15, 17, 1, 656}, {16, 18, 1, 656}, {18, 19, 1, 656}, {17, 14, 1, 657}, {18, 15, 1, 657}, {19, 17, 1, 657}, {17, 15, 1, 658}, {18, 16, 1, 658}, {19, 18, 1, 658}, {17, 17, 1, 659}, {18, 18, 1, 659}, {19, 19, 1, 659}, {32, 32, 1, 660}, {33, 33, 1, 660}, {35, 35, 1, 660}, {32, 33, 1, 661}, {33, 34, 1, 661}, {35, 36, 1, 661}, {32, 35, 1, 662}, {33, 36, 1, 662}, {35, 37, 1, 662}, {33, 32, 1, 663}, {34, 33, 1, 663}, {36, 35, 1, 663}, {33, 33, 1, 664}, {34, 34, 1, 664}, {36, 36, 1, 664}, {33, 35, 1, 665}, {34, 36, 1, 665}, {36, 37, 1, 665}, {35, 32, 1, 666}, {36, 33, 1, 666}, {37, 35, 1, 666}, {35, 33, 1, 667}, {36, 34, 1, 667}, {37, 36, 1, 667}, {35, 35, 1, 668}, {36, 36, 1, 668}, {37, 37, 1, 668}, {32, 102, 1, 669}, {33, 103, 2, 669}, {34, 104, 1, 669}, {35, 106, 2, 669}, {36, 107, 2, 669}, {37, 109, 1, 669}, {32, 103, 1, 670}, {33, 104, 2, 670}, {34, 105, 1, 670}, {35, 107, 2, 670}, {36, 108, 2, 670}, {37, 110, 1, 670}, {32, 106, 1, 671}, {33, 107, 2, 671}, {34, 108, 1, 671}, {35, 109, 2, 671}, {36, 110, 2, 671}, {37, 111, 1, 671}, {41, 44, 1, 672}, {42, 45, 1, 672}, {43, 47, 1, 672}, {41, 45, 1, 673}, {42, 46, 1, 673}, {43, 48, 1, 673}, {41, 47, 1, 674}, {42, 48, 1, 674}, {43, 49, 1, 674}, {26, 131, 1, 675}, {27, 132, 1, 675}, {29, 134, 1, 675}, {26, 132, 1, 676}, {27, 133, 1, 676}, {29, 135, 1, 676}, {26, 134, 1, 677}, {27, 135, 1, 677}, {29, 136, 1, 677}, {27, 131, 1, 678}, {28, 132, 1, 678}, {30, 134, 1, 678}, {27, 132, 1, 679}, {28, 133, 1, 679}, {30, 135, 1, 679}, {27, 134, 1, 680}, {28, 135, 1, 680}, {30, 136, 1, 680}, {29, 131, 1, 681}, {30, 132, 1, 681}, {31, 134, 1, 681}, {29, 132, 1, 682}, {30, 133, 1, 682}, {31, 135, 1, 682}, {29, 134, 1, 683}, {30, 135, 1, 683}, {31, 136, 1, 683}, {20, 92, 1, 684}, {21, 93, 2, 684}, {22, 94, 1, 684}, {23, 96, 2, 684}, {24, 97, 2, 684}, {25, 99, 1, 684}, {20, 93, 1, 685}, {21, 94, 2, 685}, {22, 95, 1, 685}, {23, 97, 2, 685}, {24, 98, 2, 685}, {25, 100, 1, 685}, {20, 96, 1, 686}, {21, 97, 2, 686}, {22, 98, 1, 686}, {23, 99, 2, 686}, {24, 100, 2, 686}, {25, 101, 1, 686}, {14, 137, 1, 687}, {15, 138, 2, 687}, {16, 139, 1, 687}, {17, 141, 2, 687}, {18, 142, 2, 687}, {19, 144, 1, 687}, {14, 138, 1, 688}, {15, 139, 2, 688}, {16, 140, 1, 688}, {17, 142, 2, 688}, {18, 143, 2, 688}, {19, 145, 1, 688}, {14, 141, 1, 689}, {15, 142, 2, 689}, {16, 143, 1, 689}, {17, 144, 2, 689}, {18, 145, 2, 689}, {19, 146, 1, 689}, {44, 44, 1, 690}, {45, 45, 1, 690}, {47, 47, 1, 690}, {44, 45, 1, 691}, {45, 46, 1, 691}, {47, 48, 1, 691}, {44, 47, 1, 692}, {45, 48, 1, 692}, {47, 49, 1, 692}, {45, 44, 1, 693}, {46, 45, 1, 693}, {48, 47, 1, 693}, {45, 45, 1, 694}, {46, 46, 1, 694}, {48, 48, 1, 694}, {45, 47, 1, 695}, {46, 48, 1, 695}, {48, 49, 1, 695}, {47, 44, 1, 696}, {48, 45, 1, 696}, {49, 47, 1, 696}, {47, 45, 1, 697}, {48, 46, 1, 697}, {49, 48, 1, 697}, {47, 47, 1, 698}, {48, 48, 1, 698}, {49, 49, 1, 698}, {26, 26, 1, 699}, {27, 27, 1, 699}, {29, 29, 1, 699}, {26, 27, 1, 700}, {27, 28, 1, 700}, {29, 30, 1, 700}, {26, 29, 1, 701}, {27, 30, 1, 701}, {29, 31, 1, 701}, {27, 26, 1, 702}, {28, 27, 1, 702}, {30, 29, 1, 702}, {27, 27, 1, 703}, {28, 28, 1, 703}, {30, 30, 1, 703}, {27, 29, 1, 704}, {28, 30, 1, 704}, {30, 31, 1, 704}, {29, 26, 1, 705}, {30, 27, 1, 705}, {31, 29, 1, 705}, {29, 27, 1, 706}, {30, 28, 1, 706}, {31, 30, 1, 706}, {29, 29, 1, 707}, {30, 30, 1, 707}, {31, 31, 1, 707}, {41, 131, 1, 708}, {42, 132, 1, 708}, {43, 134, 1, 708}, {41, 132, 1, 709}, {42, 133, 1, 709}, {43, 135, 1, 709}, {41, 134, 1, 710}, {42, 135, 1, 710}, {43, 136, 1, 710}, {8, 92, 1, 711}, {9, 93, 1, 711}, {10, 96, 1, 711}, {8, 93, 1, 712}, {9, 94, 1, 712}, {10, 97, 1, 712}, {8, 94, 1, 713}, {9, 95, 1, 713}, {10, 98, 1, 713}, {8, 96, 1, 714}, {9, 97, 1, 714}, {10, 99, 1, 714}, {8, 97, 1, 715}, {9, 98, 1, 715}, {10, 100, 1, 715}, {8, 99, 1, 716}, {9, 100, 1, 716}, {10, 101, 1, 716}, {14, 92, 1, 717}, {15, 93, 1, 717}, {17, 96, 1, 717}, {14, 93, 1, 718}, {15, 94, 1, 718}, {17, 97, 1, 718}, {14, 94, 1, 719}, {15, 95, 1, 719}, {17, 98, 1, 719}, {14, 96, 1, 720}, {15, 97, 1, 720}, {17, 99, 1, 720}, {14, 97, 1, 721}, {15, 98, 1, 721}, {17, 100, 1, 721}, {14, 99, 1, 722}, {15, 100, 1, 722}, {17, 101, 1, 722}, {15, 92, 1, 723}, {16, 93, 1, 723}, {18, 96, 1, 723}, {15, 93, 1, 724}, {16, 94, 1, 724}, {18, 97, 1, 724}, {15, 94, 1, 725}, {16, 95, 1, 725}, {18, 98, 1, 725}, {15, 96, 1, 726}, {16, 97, 1, 726}, {18, 99, 1, 726}, {15, 97, 1, 727}, {16, 98, 1, 727}, {18, 100, 1, 727}, {15, 99, 1, 728}, {16, 100, 1, 728}, {18, 101, 1, 728}, {17, 92, 1, 729}, {18, 93, 1, 729}, {19, 96, 1, 729}, {17, 93, 1, 730}, {18, 94, 1, 730}, {19, 97, 1, 730}, {17, 94, 1, 731}, {18, 95, 1, 731}, {19, 98, 1, 731}, {17, 96, 1, 732}, {18, 97, 1, 732}, {19, 99, 1, 732}, {17, 97, 1, 733}, {18, 98, 1, 733}, {19, 100, 1, 733}, {17, 99, 1, 734}, {18, 100, 1, 734}, {19, 101, 1, 734}, {92, 92, 1, 735}, {93, 93, 1, 735}, {96, 96, 1, 735}, {92, 93, 1, 736}, {93, 94, 1, 736}, {96, 97, 1, 736}, {92, 94, 1, 737}, {93, 95, 1, 737}, {96, 98, 1, 737}, {92, 96, 1, 738}, {93, 97, 1, 738}, {96, 99, 1, 738}, {92, 97, 1, 739}, {93, 98, 1, 739}, {96, 100, 1, 739}, {92, 99, 1, 740}, {93, 100, 1, 740}, {96, 101, 1, 740}, {93, 92, 1, 741}, {94, 93, 1, 741}, {97, 96, 1, 741}, {93, 93, 1, 742}, {94, 94, 1, 742}, {97, 97, 1, 742}, {93, 94, 1, 743}, {94, 95, 1, 743}, {97, 98, 1, 743}, {93, 96, 1, 744}, {94, 97, 1, 744}, {97, 99, 1, 744}, {93, 97, 1, 745}, {94, 98, 1, 745}, {97, 100, 1, 745}, {93, 99, 1, 746}, {94, 100, 1, 746}, {97, 101, 1, 746}, {94, 92, 1, 747}, {95, 93, 1, 747}, {98, 96, 1, 747}, {94, 93, 1, 748}, {95, 94, 1, 748}, {98, 97, 1, 748}, {94, 94, 1, 749}, {95, 95, 1, 749}, {98, 98, 1, 749}, {94, 96, 1, 750}, {95, 97, 1, 750}, {98, 99, 1, 750}, {94, 97, 1, 751}, {95, 98, 1, 751}, {98, 100, 1, 751}, {94, 99, 1, 752}, {95, 100, 1, 752}, {98, 101, 1, 752}, {96, 92, 1, 753}, {97, 93, 1, 753}, {99, 96, 1, 753}, {96, 93, 1, 754}, {97, 94, 1, 754}, {99, 97, 1, 754}, {96, 94, 1, 755}, {97, 95, 1, 755}, {99, 98, 1, 755}, {96, 96, 1, 756}, {97, 97, 1, 756}, {99, 99, 1, 756}, {96, 97, 1, 757}, {97, 98, 1, 757}, {99, 100, 1, 757}, {96, 99, 1, 758}, {97, 100, 1, 758}, {99, 101, 1, 758}, {97, 92, 1, 759}, {98, 93, 1, 759}, {100, 96, 1, 759}, {97, 93, 1, 760}, {98, 94, 1, 760}, {100, 97, 1, 760}, {97, 94, 1, 761}, {98, 95, 1, 761}, {100, 98, 1, 761}, {97, 96, 1, 762}, {98, 97, 1, 762}, {100, 99, 1, 762}, {97, 97, 1, 763}, {98, 98, 1, 763}, {100, 100, 1, 763}, {97, 99, 1, 764}, {98, 100, 1, 764}, {100, 101, 1, 764}, {99, 92, 1, 765}, {100, 93, 1, 765}, {101, 96, 1, 765}, {99, 93, 1, 766}, {100, 94, 1, 766}, {101, 97, 1, 766}, {99, 94, 1, 767}, {100, 95, 1, 767}, {101, 98, 1, 767}, {99, 96, 1, 768}, {100, 97, 1, 768}, {101, 99, 1, 768}, {99, 97, 1, 769}, {100, 98, 1, 769}, {101, 100, 1, 769}, {99, 99, 1, 770}, {100, 100, 1, 770}, {101, 101, 1, 770}, {8, 112, 1, 771}, {9, 113, 1, 771}, {10, 116, 1, 771}, {8, 113, 1, 772}, {9, 114, 1, 772}, {10, 117, 1, 772}, {8, 114, 1, 773}, {9, 115, 1, 773}, {10, 118, 1, 773}, {8, 116, 1, 774}, {9, 117, 1, 774}, {10, 119, 1, 774}, {8, 117, 1, 775}, {9, 118, 1, 775}, {10, 120, 1, 775}, {8, 119, 1, 776}, {9, 120, 1, 776}, {10, 121, 1, 776}, {8, 56, 1, 777}, {9, 57, 1, 777}, {10, 60, 1, 777}, {8, 57, 1, 778}, {9, 58, 1, 778}, {10, 61, 1, 778}, {8, 58, 1, 779}, {9, 59, 1, 779}, {10, 62, 1, 779}, {8, 60, 1, 780}, {9, 61, 1, 780}, {10, 63, 1, 780}, {8, 61, 1, 781}, {9, 62, 1, 781}, {10, 64, 1, 781}, {8, 63, 1, 782}, {9, 64, 1, 782}, {10, 65, 1, 782}, {8, 66, 1, 783}, {9, 67, 1, 783}, {10, 70, 1, 783}, {8, 67, 1, 784}, {9, 68, 1, 784}, {10, 71, 1, 784}, {8, 68, 1, 785}, {9, 69, 1, 785}, {10, 72, 1, 785}, {8, 70, 1, 786}, {9, 71, 1, 786}, {10, 73, 1, 786}, {8, 71, 1, 787}, {9, 72, 1, 787}, {10, 74, 1, 787}, {8, 73, 1, 788}, {9, 74, 1, 788}, {10, 75, 1, 788}, {14, 32, 1, 789}, {15, 33, 1, 789}, {17, 35, 1, 789}, {14, 33, 1, 790}, {15, 34, 1, 790}, {17, 36, 1, 790}, {14, 35, 1, 791}, {15, 36, 1, 791}, {17, 37, 1, 791}, {15, 32, 1, 792}, {16, 33, 1, 792}, {18, 35, 1, 792}, {15, 33, 1, 793}, {16, 34, 1, 793}, {18, 36, 1, 793}, {15, 35, 1, 794}, {16, 36, 1, 794}, {18, 37, 1, 794}, {17, 32, 1, 795}, {18, 33, 1, 795}, {19, 35, 1, 795}, {17, 33, 1, 796}, {18, 34, 1, 796}, {19, 36, 1, 796}, {17, 35, 1, 797}, {18, 36, 1, 797}, {19, 37, 1, 797}, {8, 102, 1, 798}, {9, 103, 1, 798}, {10, 106, 1, 798}, {8, 103, 1, 799}, {9, 104, 1, 799}, {10, 107, 1, 799}, {8, 104, 1, 800}, {9, 105, 1, 800}, {10, 108, 1, 800}, {8, 106, 1, 801}, {9, 107, 1, 801}, {10, 109, 1, 801}, {8, 107, 1, 802}, {9, 108, 1, 802}, {10, 110, 1, 802}, {8, 109, 1, 803}, {9, 110, 1, 803}, {10, 111, 1, 803}, {8, 82, 1, 804}, {9, 83, 1, 804}, {10, 86, 1, 804}, {8, 83, 1, 805}, {9, 84, 1, 805}, {10, 87, 1, 805}, {8, 84, 1, 806}, {9, 85, 1, 806}, {10, 88, 1, 806}, {8, 86, 1, 807}, {9, 87, 1, 807}, {10, 89, 1, 807}, {8, 87, 1, 808}, {9, 88, 1, 808}, {10, 90, 1, 808}, {8, 89, 1, 809}, {9, 90, 1, 809}, {10, 91, 1, 809}, {14, 76, 1, 810}, {15, 77, 1, 810}, {17, 79, 1, 810}, {14, 77, 1, 811}, {15, 78, 1, 811}, {17, 80, 1, 811}, {14, 79, 1, 812}, {15, 80, 1, 812}, {17, 81, 1, 812}, {15, 76, 1, 813}, {16, 77, 1, 813}, {18, 79, 1, 813}, {15, 77, 1, 814}, {16, 78, 1, 814}, {18, 80, 1, 814}, {15, 79, 1, 815}, {16, 80, 1, 815}, {18, 81, 1, 815}, {17, 76, 1, 816}, {18, 77, 1, 816}, {19, 79, 1, 816}, {17, 77, 1, 817}, {18, 78, 1, 817}, {19, 80, 1, 817}, {17, 79, 1, 818}, {18, 80, 1, 818}, {19, 81, 1, 818}, {8, 147, 1, 819}, {9, 148, 1, 819}, {10, 151, 1, 819}, {8, 148, 1, 820}, {9, 149, 1, 820}, {10, 152, 1, 820}, {8, 149, 1, 821}, {9, 150, 1, 821}, {10, 153, 1, 821}, {8, 151, 1, 822}, {9, 152, 1, 822}, {10, 154, 1, 822}, {8, 152, 1, 823}, {9, 153, 1, 823}, {10, 155, 1, 823}, {8, 154, 1, 824}, {9, 155, 1, 824}, {10, 156, 1, 824}, {157, 14, 1, 825}, {158, 15, 1, 825}, {159, 17, 1, 825}, {157, 15, 1, 826}, {158, 16, 1, 826}, {159, 18, 1, 826}, {157, 17, 1, 827}, {158, 18, 1, 827}, {159, 19, 1, 827}, {14, 112, 1, 828}, {15, 113, 1, 828}, {17, 116, 1, 828}, {14, 113, 1, 829}, {15, 114, 1, 829}, {17, 117, 1, 829}, {14, 114, 1, 830}, {15, 115, 1, 830}, {17, 118, 1, 830}, {14, 116, 1, 831}, {15, 117, 1, 831}, {17, 119, 1, 831}, {14, 117, 1, 832}, {15, 118, 1, 832}, {17, 120, 1, 832}, {14, 119, 1, 833}, {15, 120, 1, 833}, {17, 121, 1, 833}, {15, 112, 1, 834}, {16, 113, 1, 834}, {18, 116, 1, 834}, {15, 113, 1, 835}, {16, 114, 1, 835}, {18, 117, 1, 835}, {15, 114, 1, 836}, {16, 115, 1, 836}, {18, 118, 1, 836}, {15, 116, 1, 837}, {16, 117, 1, 837}, {18, 119, 1, 837}, {15, 117, 1, 838}, {16, 118, 1, 838}, {18, 120, 1, 838}, {15, 119, 1, 839}, {16, 120, 1, 839}, {18, 121, 1, 839}, {17, 112, 1, 840}, {18, 113, 1, 840}, {19, 116, 1, 840}, {17, 113, 1, 841}, {18, 114, 1, 841}, {19, 117, 1, 841}, {17, 114, 1, 842}, {18, 115, 1, 842}, {19, 118, 1, 842}, {17, 116, 1, 843}, {18, 117, 1, 843}, {19, 119, 1, 843}, {17, 117, 1, 844}, {18, 118, 1, 844}, {19, 120, 1, 844}, {17, 119, 1, 845}, {18, 120, 1, 845}, {19, 121, 1, 845}, {41, 92, 1, 846}, {42, 93, 1, 846}, {43, 96, 1, 846}, {41, 93, 1, 847}, {42, 94, 1, 847}, {43, 97, 1, 847}, {41, 94, 1, 848}, {42, 95, 1, 848}, {43, 98, 1, 848}, {41, 96, 1, 849}, {42, 97, 1, 849}, {43, 99, 1, 849}, {41, 97, 1, 850}, {42, 98, 1, 850}, {43, 100, 1, 850}, {41, 99, 1, 851}, {42, 100, 1, 851}, {43, 101, 1, 851}, {112, 112, 1, 852}, {113, 113, 1, 852}, {116, 116, 1, 852}, {112, 113, 1, 853}, {113, 114, 1, 853}, {116, 117, 1, 853}, {112, 114, 1, 854}, {113, 115, 1, 854}, {116, 118, 1, 854}, {112, 116, 1, 855}, {113, 117, 1, 855}, {116, 119, 1, 855}, {112, 117, 1, 856}, {113, 118, 1, 856}, {116, 120, 1, 856}, {112, 119, 1, 857}, {113, 120, 1, 857}, {116, 121, 1, 857}, {113, 112, 1, 858}, {114, 113, 1, 858}, {117, 116, 1, 858}, {113, 113, 1, 859}, {114, 114, 1, 859}, {117, 117, 1, 859}, {113, 114, 1, 860}, {114, 115, 1, 860}, {117, 118, 1, 860}, {113, 116, 1, 861}, {114, 117, 1, 861}, {117, 119, 1, 861}, {113, 117, 1, 862}, {114, 118, 1, 862}, {117, 120, 1, 862}, {113, 119, 1, 863}, {114, 120, 1, 863}, {117, 121, 1, 863}, {114, 112, 1, 864}, {115, 113, 1, 864}, {118, 116, 1, 864}, {114, 113, 1, 865}, {115, 114, 1, 865}, {118, 117, 1, 865}, {114, 114, 1, 866}, {115, 115, 1, 866}, {118, 118, 1, 866}, {114, 116, 1, 867}, {115, 117, 1, 867}, {118, 119, 1, 867}, {114, 117, 1, 868}, {115, 118, 1, 868}, {118, 120, 1, 868}, {114, 119, 1, 869}, {115, 120, 1, 869}, {118, 121, 1, 869}, {116, 112, 1, 870}, {117, 113, 1, 870}, {119, 116, 1, 870}, {116, 113, 1, 871}, {117, 114, 1, 871}, {119, 117, 1, 871}, {116, 114, 1, 872}, {117, 115, 1, 872}, {119, 118, 1, 872}, {116, 116, 1, 873}, {117, 117, 1, 873}, {119, 119, 1, 873}, {116, 117, 1, 874}, {117, 118, 1, 874}, {119, 120, 1, 874}, {116, 119, 1, 875}, {117, 120, 1, 875}, {119, 121, 1, 875}, {117, 112, 1, 876}, {118, 113, 1, 876}, {120, 116, 1, 876}, {117, 113, 1, 877}, {118, 114, 1, 877}, {120, 117, 1, 877}, {117, 114, 1, 878}, {118, 115, 1, 878}, {120, 118, 1, 878}, {117, 116, 1, 879}, {118, 117, 1, 879}, {120, 119, 1, 879}, {117, 117, 1, 880}, {118, 118, 1, 880}, {120, 120, 1, 880}, {117, 119, 1, 881}, {118, 120, 1, 881}, {120, 121, 1, 881}, {119, 112, 1, 882}, {120, 113, 1, 882}, {121, 116, 1, 882}, {119, 113, 1, 883}, {120, 114, 1, 883}, {121, 117, 1, 883}, {119, 114, 1, 884}, {120, 115, 1, 884}, {121, 118, 1, 884}, {119, 116, 1, 885}, {120, 117, 1, 885}, {121, 119, 1, 885}, {119, 117, 1, 886}, {120, 118, 1, 886}, {121, 120, 1, 886}, {119, 119, 1, 887}, {120, 120, 1, 887}, {121, 121, 1, 887}, {112, 56, 1, 888}, {113, 57, 1, 888}, {116, 60, 1, 888}, {112, 57, 1, 889}, {113, 58, 1, 889}, {116, 61, 1, 889}, {112, 58, 1, 890}, {113, 59, 1, 890}, {116, 62, 1, 890}, {112, 60, 1, 891}, {113, 61, 1, 891}, {116, 63, 1, 891}, {112, 61, 1, 892}, {113, 62, 1, 892}, {116, 64, 1, 892}, {112, 63, 1, 893}, {113, 64, 1, 893}, {116, 65, 1, 893}, {113, 56, 1, 894}, {114, 57, 1, 894}, {117, 60, 1, 894}, {113, 57, 1, 895}, {114, 58, 1, 895}, {117, 61, 1, 895}, {113, 58, 1, 896}, {114, 59, 1, 896}, {117, 62, 1, 896}, {113, 60, 1, 897}, {114, 61, 1, 897}, {117, 63, 1, 897}, {113, 61, 1, 898}, {114, 62, 1, 898}, {117, 64, 1, 898}, {113, 63, 1, 899}, {114, 64, 1, 899}, {117, 65, 1, 899}, {114, 56, 1, 900}, {115, 57, 1, 900}, {118, 60, 1, 900}, {114, 57, 1, 901}, {115, 58, 1, 901}, {118, 61, 1, 901}, {114, 58, 1, 902}, {115, 59, 1, 902}, {118, 62, 1, 902}, {114, 60, 1, 903}, {115, 61, 1, 903}, {118, 63, 1, 903}, {114, 61, 1, 904}, {115, 62, 1, 904}, {118, 64, 1, 904}, {114, 63, 1, 905}, {115, 64, 1, 905}, {118, 65, 1, 905}, {116, 56, 1, 906}, {117, 57, 1, 906}, {119, 60, 1, 906}, {116, 57, 1, 907}, {117, 58, 1, 907}, {119, 61, 1, 907}, {116, 58, 1, 908}, {117, 59, 1, 908}, {119, 62, 1, 908}, {116, 60, 1, 909}, {117, 61, 1, 909}, {119, 63, 1, 909}, {116, 61, 1, 910}, {117, 62, 1, 910}, {119, 64, 1, 910}, {116, 63, 1, 911}, {117, 64, 1, 911}, {119, 65, 1, 911}, {117, 56, 1, 912}, {118, 57, 1, 912}, {120, 60, 1, 912}, {117, 57, 1, 913}, {118, 58, 1, 913}, {120, 61, 1, 913}, {117, 58, 1, 914}, {118, 59, 1, 914}, {120, 62, 1, 914}, {117, 60, 1, 915}, {118, 61, 1, 915}, {120, 63, 1, 915}, {117, 61, 1, 916}, {118, 62, 1, 916}, {120, 64, 1, 916}, {117, 63, 1, 917}, {118, 64, 1, 917}, {120, 65, 1, 917}, {119, 56, 1, 918}, {120, 57, 1, 918}, {121, 60, 1, 918}, {119, 57, 1, 919}, {120, 58, 1, 919}, {121, 61, 1, 919}, {119, 58, 1, 920}, {120, 59, 1, 920}, {121, 62, 1, 920}, {119, 60, 1, 921}, {120, 61, 1, 921}, {121, 63, 1, 921}, {119, 61, 1, 922}, {120, 62, 1, 922}, {121, 64, 1, 922}, {119, 63, 1, 923}, {120, 64, 1, 923}, {121, 65, 1, 923}, {128, 26, 1, 924}, {129, 27, 1, 924}, {130, 29, 1, 924}, {128, 27, 1, 925}, {129, 28, 1, 925}, {130, 30, 1, 925}, {128, 29, 1, 926}, {129, 30, 1, 926}, {130, 31, 1, 926}, {38, 26, 1, 927}, {39, 27, 1, 927}, {40, 29, 1, 927}, {38, 27, 1, 928}, {39, 28, 1, 928}, {40, 30, 1, 928}, {38, 29, 1, 929}, {39, 30, 1, 929}, {40, 31, 1, 929}, {14, 56, 1, 930}, {15, 57, 1, 930}, {17, 60, 1, 930}, {14, 57, 1, 931}, {15, 58, 1, 931}, {17, 61, 1, 931}, {14, 58, 1, 932}, {15, 59, 1, 932}, {17, 62, 1, 932}, {14, 60, 1, 933}, {15, 61, 1, 933}, {17, 63, 1, 933}, {14, 61, 1, 934}, {15, 62, 1, 934}, {17, 64, 1, 934}, {14, 63, 1, 935}, {15, 64, 1, 935}, {17, 65, 1, 935}, {15, 56, 1, 936}, {16, 57, 1, 936}, {18, 60, 1, 936}, {15, 57, 1, 937}, {16, 58, 1, 937}, {18, 61, 1, 937}, {15, 58, 1, 938}, {16, 59, 1, 938}, {18, 62, 1, 938}, {15, 60, 1, 939}, {16, 61, 1, 939}, {18, 63, 1, 939}, {15, 61, 1, 940}, {16, 62, 1, 940}, {18, 64, 1, 940}, {15, 63, 1, 941}, {16, 64, 1, 941}, {18, 65, 1, 941}, {17, 56, 1, 942}, {18, 57, 1, 942}, {19, 60, 1, 942}, {17, 57, 1, 943}, {18, 58, 1, 943}, {19, 61, 1, 943}, {17, 58, 1, 944}, {18, 59, 1, 944}, {19, 62, 1, 944}, {17, 60, 1, 945}, {18, 61, 1, 945}, {19, 63, 1, 945}, {17, 61, 1, 946}, {18, 62, 1, 946}, {19, 64, 1, 946}, {17, 63, 1, 947}, {18, 64, 1, 947}, {19, 65, 1, 947}, {11, 92, 1, 948}, {12, 93, 1, 948}, {13, 96, 1, 948}, {11, 93, 1, 949}, {12, 94, 1, 949}, {13, 97, 1, 949}, {11, 94, 1, 950}, {12, 95, 1, 950}, {13, 98, 1, 950}, {11, 96, 1, 951}, {12, 97, 1, 951}, {13, 99, 1, 951}, {11, 97, 1, 952}, {12, 98, 1, 952}, {13, 100, 1, 952}, {11, 99, 1, 953}, {12, 100, 1, 953}, {13, 101, 1, 953}, {128, 44, 1, 954}, {129, 45, 1, 954}, {130, 47, 1, 954}, {128, 45, 1, 955}, {129, 46, 1, 955}, {130, 48, 1, 955}, {128, 47, 1, 956}, {129, 48, 1, 956}, {130, 49, 1, 956}, {122, 92, 1, 957}, {123, 93, 1, 957}, {124, 96, 1, 957}, {122, 93, 1, 958}, {123, 94, 1, 958}, {124, 97, 1, 958}, {122, 94, 1, 959}, {123, 95, 1, 959}, {124, 98, 1, 959}, {122, 96, 1, 960}, {123, 97, 1, 960}, {124, 99, 1, 960}, {122, 97, 1, 961}, {123, 98, 1, 961}, {124, 100, 1, 961}, {122, 99, 1, 962}, {123, 100, 1, 962}, {124, 101, 1, 962}, {41, 112, 1, 963}, {42, 113, 1, 963}, {43, 116, 1, 963}, {41, 113, 1, 964}, {42, 114, 1, 964}, {43, 117, 1, 964}, {41, 114, 1, 965}, {42, 115, 1, 965}, {43, 118, 1, 965}, {41, 116, 1, 966}, {42, 117, 1, 966}, {43, 119, 1, 966}, {41, 117, 1, 967}, {42, 118, 1, 967}, {43, 120, 1, 967}, {41, 119, 1, 968}, {42, 120, 1, 968}, {43, 121, 1, 968}, {26, 112, 1, 969}, {27, 113, 1, 969}, {29, 116, 1, 969}, {26, 113, 1, 970}, {27, 114, 1, 970}, {29, 117, 1, 970}, {26, 114, 1, 971}, {27, 115, 1, 971}, {29, 118, 1, 971}, {26, 116, 1, 972}, {27, 117, 1, 972}, {29, 119, 1, 972}, {26, 117, 1, 973}, {27, 118, 1, 973}, {29, 120, 1, 973}, {26, 119, 1, 974}, {27, 120, 1, 974}, {29, 121, 1, 974}, {27, 112, 1, 975}, {28, 113, 1, 975}, {30, 116, 1, 975}, {27, 113, 1, 976}, {28, 114, 1, 976}, {30, 117, 1, 976}, {27, 114, 1, 977}, {28, 115, 1, 977}, {30, 118, 1, 977}, {27, 116, 1, 978}, {28, 117, 1, 978}, {30, 119, 1, 978}, {27, 117, 1, 979}, {28, 118, 1, 979}, {30, 120, 1, 979}, {27, 119, 1, 980}, {28, 120, 1, 980}, {30, 121, 1, 980}, {29, 112, 1, 981}, {30, 113, 1, 981}, {31, 116, 1, 981}, {29, 113, 1, 982}, {30, 114, 1, 982}, {31, 117, 1, 982}, {29, 114, 1, 983}, {30, 115, 1, 983}, {31, 118, 1, 983}, {29, 116, 1, 984}, {30, 117, 1, 984}, {31, 119, 1, 984}, {29, 117, 1, 985}, {30, 118, 1, 985}, {31, 120, 1, 985}, {29, 119, 1, 986}, {30, 120, 1, 986}, {31, 121, 1, 986}, {41, 56, 1, 987}, {42, 57, 1, 987}, {43, 60, 1, 987}, {41, 57, 1, 988}, {42, 58, 1, 988}, {43, 61, 1, 988}, {41, 58, 1, 989}, {42, 59, 1, 989}, {43, 62, 1, 989}, {41, 60, 1, 990}, {42, 61, 1, 990}, {43, 63, 1, 990}, {41, 61, 1, 991}, {42, 62, 1, 991}, {43, 64, 1, 991}, {41, 63, 1, 992}, {42, 64, 1, 992}, {43, 65, 1, 992}, {26, 56, 1, 993}, {27, 57, 1, 993}, {29, 60, 1, 993}, {26, 57, 1, 994}, {27, 58, 1, 994}, {29, 61, 1, 994}, {26, 58, 1, 995}, {27, 59, 1, 995}, {29, 62, 1, 995}, {26, 60, 1, 996}, {27, 61, 1, 996}, {29, 63, 1, 996}, {26, 61, 1, 997}, {27, 62, 1, 997}, {29, 64, 1, 997}, {26, 63, 1, 998}, {27, 64, 1, 998}, {29, 65, 1, 998}, {27, 56, 1, 999}, {28, 57, 1, 999}, {30, 60, 1, 999}, {27, 57, 1, 1000}, {28, 58, 1, 1000}, {30, 61, 1, 1000}, {27, 58, 1, 1001}, {28, 59, 1, 1001}, {30, 62, 1, 1001}, {27, 60, 1, 1002}, {28, 61, 1, 1002}, {30, 63, 1, 1002}, {27, 61, 1, 1003}, {28, 62, 1, 1003}, {30, 64, 1, 1003}, {27, 63, 1, 1004}, {28, 64, 1, 1004}, {30, 65, 1, 1004}, {29, 56, 1, 1005}, {30, 57, 1, 1005}, {31, 60, 1, 1005}, {29, 57, 1, 1006}, {30, 58, 1, 1006}, {31, 61, 1, 1006}, {29, 58, 1, 1007}, {30, 59, 1, 1007}, {31, 62, 1, 1007}, {29, 60, 1, 1008}, {30, 61, 1, 1008}, {31, 63, 1, 1008}, {29, 61, 1, 1009}, {30, 62, 1, 1009}, {31, 64, 1, 1009}, {29, 63, 1, 1010}, {30, 64, 1, 1010}, {31, 65, 1, 1010}, {41, 66, 1, 1011}, {42, 67, 1, 1011}, {43, 70, 1, 1011}, {41, 67, 1, 1012}, {42, 68, 1, 1012}, {43, 71, 1, 1012}, {41, 68, 1, 1013}, {42, 69, 1, 1013}, {43, 72, 1, 1013}, {41, 70, 1, 1014}, {42, 71, 1, 1014}, {43, 73, 1, 1014}, {41, 71, 1, 1015}, {42, 72, 1, 1015}, {43, 74, 1, 1015}, {41, 73, 1, 1016}, {42, 74, 1, 1016}, {43, 75, 1, 1016}, {41, 102, 1, 1017}, {42, 103, 1, 1017}, {43, 106, 1, 1017}, {41, 103, 1, 1018}, {42, 104, 1, 1018}, {43, 107, 1, 1018}, {41, 104, 1, 1019}, {42, 105, 1, 1019}, {43, 108, 1, 1019}, {41, 106, 1, 1020}, {42, 107, 1, 1020}, {43, 109, 1, 1020}, {41, 107, 1, 1021}, {42, 108, 1, 1021}, {43, 110, 1, 1021}, {41, 109, 1, 1022}, {42, 110, 1, 1022}, {43, 111, 1, 1022}, {11, 112, 1, 1023}, {12, 113, 1, 1023}, {13, 116, 1, 1023}, {11, 113, 1, 1024}, {12, 114, 1, 1024}, {13, 117, 1, 1024}, {11, 114, 1, 1025}, {12, 115, 1, 1025}, {13, 118, 1, 1025}, {11, 116, 1, 1026}, {12, 117, 1, 1026}, {13, 119, 1, 1026}, {11, 117, 1, 1027}, {12, 118, 1, 1027}, {13, 120, 1, 1027}, {11, 119, 1, 1028}, {12, 120, 1, 1028}, {13, 121, 1, 1028}, {11, 56, 1, 1029}, {12, 57, 1, 1029}, {13, 60, 1, 1029}, {11, 57, 1, 1030}, {12, 58, 1, 1030}, {13, 61, 1, 1030}, {11, 58, 1, 1031}, {12, 59, 1, 1031}, {13, 62, 1, 1031}, {11, 60, 1, 1032}, {12, 61, 1, 1032}, {13, 63, 1, 1032}, {11, 61, 1, 1033}, {12, 62, 1, 1033}, {13, 64, 1, 1033}, {11, 63, 1, 1034}, {12, 64, 1, 1034}, {13, 65, 1, 1034}, {2, 252, 1, 1035}, {41, 273, 1, 1036}, {42, 274, 1, 1036}, {43, 275, 1, 1036}, {8, 276, 1, 1037}, {9, 277, 1, 1037}, {10, 278, 1, 1037}, {2, 239, 1, 1038}, {0, 169, 1, 1039}, {11, 279, 1, 1040}, {12, 280, 1, 1040}, {13, 281, 1, 1040}, {26, 282, 1, 1041}, {27, 285, 1, 1041}, {29, 288, 1, 1041}, {27, 283, 1, 1041}, {28, 286, 1, 1041}, {30, 289, 1, 1041}, {29, 284, 1, 1041}, {30, 287, 1, 1041}, {31, 290, 1, 1041}, {3, 243, 1, 1042}, {7, 179, 1, 1043}, {6, 189, 1, 1044}, {6, 163, 1, 1045}, {4, 202, 1, 1046}, {11, 291, 1, 1047}, {12, 292, 1, 1047}, {13, 293, 1, 1047}, {0, 184, 1, 1048}, {157, 276, 1, 1049}, {158, 277, 1, 1049}, {159, 278, 1, 1049}, {2, 254, 1, 1050}, {5, 248, 1, 1051}, {2, 258, 1, 1052}, {8, 294, 1, 1053}, {9, 295, 1, 1053}, {10, 296, 1, 1053}, {14, 297, 1, 1054}, {15, 300, 1, 1054}, {17, 303, 1, 1054}, {15, 298, 1, 1054}, {16, 301, 1, 1054}, {18, 304, 1, 1054}, {17, 299, 1, 1054}, {18, 302, 1, 1054}, {19, 305, 1, 1054}, {128, 306, 1, 1055}, {129, 307, 1, 1055}, {130, 308, 1, 1055}, {4, 218, 1, 1056}, {0, 165, 1, 1057}, {5, 195, 1, 1058}, {8, 309, 1, 1059}, {9, 310, 1, 1059}, {10, 311, 1, 1059}, {3, 176, 1, 1060}, {6, 252, 1, 1061}, {6, 197, 1, 1062}, {2, 200, 1, 1063}, {26, 312, 1, 1064}, {27, 315, 1, 1064}, {29, 318, 1, 1064}, {27, 313, 1, 1064}, {28, 316, 1, 1064}, {30, 319, 1, 1064}, {29, 314, 1, 1064}, {30, 317, 1, 1064}, {31, 320, 1, 1064}, {6, 171, 1, 1065}, {122, 321, 1, 1066}, {123, 322, 1, 1066}, {124, 323, 1, 1066}, {11, 324, 1, 1067}, {12, 325, 1, 1067}, {13, 326, 1, 1067}, {0, 221, 1, 1068}, {6, 194, 1, 1069}, {2, 162, 1, 1070}, {6, 195, 1, 1071}, {26, 327, 1, 1072}, {27, 330, 1, 1072}, {29, 333, 1, 1072}, {27, 328, 1, 1072}, {28, 331, 1, 1072}, {30, 334, 1, 1072}, {29, 329, 1, 1072}, {30, 332, 1, 1072}, {31, 335, 1, 1072}, {2, 196, 1, 1073}, {11, 336, 1, 1074}, {12, 337, 1, 1074}, {13, 338, 1, 1074}, {4, 192, 1, 1075}, {3, 195, 1, 1076}, {128, 309, 1, 1077}, {129, 310, 1, 1077}, {130, 311, 1, 1077}, {14, 339, 1, 1078}, {15, 342, 1, 1078}, {17, 345, 1, 1078}, {15, 340, 1, 1078}, {16, 343, 1, 1078}, {18, 346, 1, 1078}, {17, 341, 1, 1078}, {18, 344, 1, 1078}, {19, 347, 1, 1078}, {2, 190, 1, 1079}, {3, 221, 1, 1080}, {3, 258, 1, 1081}, {4, 176, 1, 1082}, {41, 348, 1, 1083}, {42, 349, 1, 1083}, {43, 350, 1, 1083}, {3, 250, 1, 1084}, {3, 249, 1, 1085}, {4, 207, 1, 1086}, {14, 351, 1, 1087}, {15, 354, 1, 1087}, {17, 357, 1, 1087}, {15, 352, 1, 1087}, {16, 355, 1, 1087}, {18, 358, 1, 1087}, {17, 353, 1, 1087}, {18, 356, 1, 1087}, {19, 359, 1, 1087}, {0, 258, 1, 1088}, {11, 360, 1, 1089}, {12, 361, 1, 1089}, {13, 362, 1, 1089}, {44, 327, 1, 1090}, {45, 330, 1, 1090}, {47, 333, 1, 1090}, {45, 328, 1, 1090}, {46, 331, 1, 1090}, {48, 334, 1, 1090}, {47, 329, 1, 1090}, {48, 332, 1, 1090}, {49, 335, 1, 1090}, {2, 164, 1, 1091}, {6, 234, 1, 1092}, {8, 363, 1, 1093}, {9, 364, 1, 1093}, {10, 365, 1, 1093}, {122, 348, 1, 1094}, {123, 349, 1, 1094}, {124, 350, 1, 1094}, {4, 201, 1, 1095}, {3, 264, 1, 1096}, {3, 248, 1, 1097}, {2, 189, 1, 1098}, {5, 203, 1, 1099}, {0, 200, 1, 1100}, {4, 185, 1, 1101}, {2, 194, 1, 1102}, {2, 221, 1, 1103}, {3, 269, 1, 1104}, {8, 366, 1, 1105}, {9, 367, 1, 1105}, {10, 368, 1, 1105}, {0, 201, 1, 1106}, {122, 369, 1, 1107}, {123, 370, 1, 1107}, {124, 371, 1, 1107}, {0, 172, 1, 1108}, {41, 372, 1, 1109}, {42, 373, 1, 1109}, {43, 374, 1, 1109}, {3, 213, 1, 1110}, {41, 375, 1, 1111}, {42, 376, 1, 1111}, {43, 377, 1, 1111}, {2, 270, 1, 1112}, {11, 348, 1, 1113}, {12, 349, 1, 1113}, {13, 350, 1, 1113}, {2, 250, 1, 1114}, {1, 195, 1, 1115}, {3, 194, 1, 1116}, {0, 256, 1, 1117}, {41, 378, 1, 1118}, {42, 379, 1, 1118}, {43, 380, 1, 1118}, {4, 213, 1, 1119}, {2, 180, 1, 1120}, {41, 369, 1, 1121}, {42, 370, 1, 1121}, {43, 371, 1, 1121}, {76, 381, 1, 1122}, {77, 384, 1, 1122}, {79, 387, 1, 1122}, {77, 382, 1, 1122}, {78, 385, 1, 1122}, {80, 388, 1, 1122}, {79, 383, 1, 1122}, {80, 386, 1, 1122}, {81, 389, 1, 1122}, {5, 261, 1, 1123}, {8, 390, 1, 1124}, {9, 391, 1, 1124}, {10, 392, 1, 1124}, {44, 381, 1, 1125}, {45, 384, 1, 1125}, {47, 387, 1, 1125}, {45, 382, 1, 1125}, {46, 385, 1, 1125}, {48, 388, 1, 1125}, {47, 383, 1, 1125}, {48, 386, 1, 1125}, {49, 389, 1, 1125}, {4, 170, 1, 1126}, {41, 393, 1, 1127}, {42, 394, 1, 1127}, {43, 395, 1, 1127}, {14, 381, 1, 1128}, {15, 384, 1, 1128}, {17, 387, 1, 1128}, {15, 382, 1, 1128}, {16, 385, 1, 1128}, {18, 388, 1, 1128}, {17, 383, 1, 1128}, {18, 386, 1, 1128}, {19, 389, 1, 1128}, {1, 160, 1, 1129}, {4, 166, 1, 1130}, {41, 396, 1, 1131}, {42, 397, 1, 1131}, {43, 398, 1, 1131}, {4, 224, 1, 1132}, {3, 177, 1, 1133}, {11, 309, 1, 1134}, {12, 310, 1, 1134}, {13, 311, 1, 1134}, {0, 174, 1, 1135}, {4, 265, 1, 1136}, {3, 206, 1, 1137}, {0, 254, 1, 1138}, {4, 209, 1, 1139}, {44, 399, 1, 1140}, {45, 402, 1, 1140}, {47, 405, 1, 1140}, {45, 400, 1, 1140}, {46, 403, 1, 1140}, {48, 406, 1, 1140}, {47, 401, 1, 1140}, {48, 404, 1, 1140}, {49, 407, 1, 1140}, {4, 258, 1, 1141}, {4, 160, 1, 1142}, {4, 177, 1, 1143}, {8, 408, 1, 1144}, {9, 409, 1, 1144}, {10, 410, 1, 1144}, {8, 411, 1, 1145}, {9, 412, 1, 1145}, {10, 413, 1, 1145}, {2, 183, 1, 1146}, {6, 203, 1, 1147}, {8, 414, 1, 1148}, {9, 415, 1, 1148}, {10, 416, 1, 1148}, {26, 297, 1, 1149}, {27, 300, 1, 1149}, {29, 303, 1, 1149}, {27, 298, 1, 1149}, {28, 301, 1, 1149}, {30, 304, 1, 1149}, {29, 299, 1, 1149}, {30, 302, 1, 1149}, {31, 305, 1, 1149}, {14, 312, 1, 1150}, {15, 315, 1, 1150}, {17, 318, 1, 1150}, {15, 313, 1, 1150}, {16, 316, 1, 1150}, {18, 319, 1, 1150}, {17, 314, 1, 1150}, {18, 317, 1, 1150}, {19, 320, 1, 1150}, {32, 417, 1, 1151}, {33, 420, 1, 1151}, {35, 423, 1, 1151}, {33, 418, 1, 1151}, {34, 421, 1, 1151}, {36, 424, 1, 1151}, {35, 419, 1, 1151}, {36, 422, 1, 1151}, {37, 425, 1, 1151}, {8, 426, 1, 1152}, {9, 427, 1, 1152}, {10, 428, 1, 1152}, {11, 273, 1, 1153}, {12, 274, 1, 1153}, {13, 275, 1, 1153}, {41, 429, 1, 1154}, {42, 430, 1, 1154}, {43, 431, 1, 1154}, {14, 432, 1, 1155}, {15, 435, 1, 1155}, {17, 438, 1, 1155}, {15, 433, 1, 1155}, {16, 436, 1, 1155}, {18, 439, 1, 1155}, {17, 434, 1, 1155}, {18, 437, 1, 1155}, {19, 440, 1, 1155}, {1, 261, 1, 1156}, {3, 223, 1, 1157}, {5, 194, 1, 1158}, {3, 167, 1, 1159}, {3, 182, 1, 1160}, {8, 441, 1, 1161}, {9, 442, 1, 1161}, {10, 443, 1, 1161}, {131, 399, 1, 1162}, {132, 402, 1, 1162}, {134, 405, 1, 1162}, {132, 400, 1, 1162}, {133, 403, 1, 1162}, {135, 406, 1, 1162}, {134, 401, 1, 1162}, {135, 404, 1, 1162}, {136, 407, 1, 1162}, {0, 234, 1, 1163}, {0, 190, 1, 1164}, {0, 264, 1, 1165}, {8, 444, 1, 1166}, {9, 445, 1, 1166}, {10, 446, 1, 1166}, {5, 252, 1, 1167}, {4, 220, 1, 1168}, {0, 235, 1, 1169}, {14, 399, 1, 1170}, {15, 402, 1, 1170}, {17, 405, 1, 1170}, {15, 400, 1, 1170}, {16, 403, 1, 1170}, {18, 406, 1, 1170}, {17, 401, 1, 1170}, {18, 404, 1, 1170}, {19, 407, 1, 1170}, {3, 254, 1, 1171}, {41, 447, 1, 1172}, {42, 448, 1, 1172}, {43, 449, 1, 1172}, {4, 271, 1, 1173}, {122, 444, 1, 1174}, {123, 445, 1, 1174}, {124, 446, 1, 1174}, {0, 243, 1, 1175}, {4, 187, 1, 1176}, {14, 450, 1, 1177}, {15, 453, 1, 1177}, {17, 456, 1, 1177}, {15, 451, 1, 1177}, {16, 454, 1, 1177}, {18, 457, 1, 1177}, {17, 452, 1, 1177}, {18, 455, 1, 1177}, {19, 458, 1, 1177}, {8, 459, 1, 1178}, {9, 460, 1, 1178}, {10, 461, 1, 1178}, {122, 462, 1, 1179}, {123, 463, 1, 1179}, {124, 464, 1, 1179}, {3, 204, 1, 1180}, {131, 312, 1, 1181}, {132, 315, 1, 1181}, {134, 318, 1, 1181}, {132, 313, 1, 1181}, {133, 316, 1, 1181}, {135, 319, 1, 1181}, {134, 314, 1, 1181}, {135, 317, 1, 1181}, {136, 320, 1, 1181}, {5, 182, 1, 1182}, {3, 165, 1, 1183}, {3, 239, 1, 1184}, {6, 165, 1, 1185}, {0, 248, 1, 1186}, {26, 465, 1, 1187}, {27, 468, 1, 1187}, {29, 471, 1, 1187}, {27, 466, 1, 1187}, {28, 469, 1, 1187}, {30, 472, 1, 1187}, {29, 467, 1, 1187}, {30, 470, 1, 1187}, {31, 473, 1, 1187}, {2, 203, 1, 1188}, {26, 381, 1, 1189}, {27, 384, 1, 1189}, {29, 387, 1, 1189}, {27, 382, 1, 1189}, {28, 385, 1, 1189}, {30, 388, 1, 1189}, {29, 383, 1, 1189}, {30, 386, 1, 1189}, {31, 389, 1, 1189}, {2, 205, 1, 1190}, {8, 474, 1, 1191}, {9, 475, 1, 1191}, {10, 476, 1, 1191}, {76, 399, 1, 1192}, {77, 402, 1, 1192}, {79, 405, 1, 1192}, {77, 400, 1, 1192}, {78, 403, 1, 1192}, {80, 406, 1, 1192}, {79, 401, 1, 1192}, {80, 404, 1, 1192}, {81, 407, 1, 1192}, {0, 171, 1, 1193}, {8, 477, 1, 1194}, {9, 478, 1, 1194}, {10, 479, 1, 1194}, {0, 203, 1, 1195}, {8, 480, 1, 1196}, {9, 481, 1, 1196}, {10, 482, 1, 1196}, {3, 171, 1, 1197}, {26, 399, 1, 1198}, {27, 402, 1, 1198}, {29, 405, 1, 1198}, {27, 400, 1, 1198}, {28, 403, 1, 1198}, {30, 406, 1, 1198}, {29, 401, 1, 1198}, {30, 404, 1, 1198}, {31, 407, 1, 1198}, {2, 243, 1, 1199}, {6, 268, 1, 1200}, {0, 230, 1, 1201}, {2, 171, 1, 1202}, {8, 447, 1, 1203}, {9, 448, 1, 1203}, {10, 449, 1, 1203}, {14, 483, 1, 1204}, {15, 486, 1, 1204}, {17, 489, 1, 1204}, {15, 484, 1, 1204}, {16, 487, 1, 1204}, {18, 490, 1, 1204}, {17, 485, 1, 1204}, {18, 488, 1, 1204}, {19, 491, 1, 1204}, {6, 196, 1, 1205}, {128, 321, 1, 1206}, {129, 322, 1, 1206}, {130, 323, 1, 1206}, {14, 492, 1, 1207}, {15, 495, 1, 1207}, {17, 498, 1, 1207}, {15, 493, 1, 1207}, {16, 496, 1, 1207}, {18, 499, 1, 1207}, {17, 494, 1, 1207}, {18, 497, 1, 1207}, {19, 500, 1, 1207}, {14, 501, 1, 1208}, {15, 504, 1, 1208}, {17, 507, 1, 1208}, {15, 502, 1, 1208}, {16, 505, 1, 1208}, {18, 508, 1, 1208}, {17, 503, 1, 1208}, {18, 506, 1, 1208}, {19, 509, 1, 1208}, {128, 294, 1, 1209}, {129, 295, 1, 1209}, {130, 296, 1, 1209}, {41, 309, 1, 1210}, {42, 310, 1, 1210}, {43, 311, 1, 1210}, {4, 186, 1, 1211}, {5, 165, 1, 1212}, {41, 510, 1, 1213}, {42, 511, 1, 1213}, {43, 512, 1, 1213}, {122, 513, 1, 1214}, {123, 514, 1, 1214}, {124, 515, 1, 1214}, {26, 351, 1, 1215}, {27, 354, 1, 1215}, {29, 357, 1, 1215}, {27, 352, 1, 1215}, {28, 355, 1, 1215}, {30, 358, 1, 1215}, {29, 353, 1, 1215}, {30, 356, 1, 1215}, {31, 359, 1, 1215}, {4, 264, 1, 1216}, {3, 246, 1, 1217}, {7, 261, 1, 1218}, {0, 252, 1, 1219}, {122, 516, 1, 1220}, {123, 517, 1, 1220}, {124, 518, 1, 1220}, {6, 243, 1, 1221}, {2, 234, 1, 1222}, {41, 519, 1, 1223}, {42, 520, 1, 1223}, {43, 521, 1, 1223}, {2, 244, 1, 1224}, {76, 351, 1, 1225}, {77, 354, 1, 1225}, {79, 357, 1, 1225}, {77, 352, 1, 1225}, {78, 355, 1, 1225}, {80, 358, 1, 1225}, {79, 353, 1, 1225}, {80, 356, 1, 1225}, {81, 359, 1, 1225}, {11, 276, 1, 1226}, {12, 277, 1, 1226}, {13, 278, 1, 1226}, {3, 218, 1, 1227}, {4, 205, 1, 1228}, {41, 516, 1, 1229}, {42, 517, 1, 1229}, {43, 518, 1, 1229}, {128, 522, 1, 1230}, {129, 523, 1, 1230}, {130, 524, 1, 1230}, {11, 525, 1, 1231}, {12, 526, 1, 1231}, {13, 527, 1, 1231}, {3, 230, 1, 1232}, {0, 268, 1, 1233}, {0, 244, 1, 1234}, {4, 196, 1, 1235}, {41, 528, 1, 1236}, {42, 529, 1, 1236}, {43, 530, 1, 1236}, {41, 531, 1, 1237}, {42, 532, 1, 1237}, {43, 533, 1, 1237}, {8, 348, 1, 1238}, {9, 349, 1, 1238}, {10, 350, 1, 1238}, {157, 306, 1, 1239}, {158, 307, 1, 1239}, {159, 308, 1, 1239}, {38, 513, 1, 1240}, {39, 514, 1, 1240}, {40, 515, 1, 1240}, {2, 195, 1, 1241}, {2, 241, 1, 1242}, {4, 165, 1, 1243}, {8, 429, 1, 1244}, {9, 430, 1, 1244}, {10, 431, 1, 1244}, {8, 534, 1, 1245}, {9, 535, 1, 1245}, {10, 536, 1, 1245}, {8, 537, 1, 1246}, {9, 538, 1, 1246}, {10, 539, 1, 1246}, {0, 182, 1, 1247}, {26, 540, 1, 1248}, {27, 543, 1, 1248}, {29, 546, 1, 1248}, {27, 541, 1, 1248}, {28, 544, 1, 1248}, {30, 547, 1, 1248}, {29, 542, 1, 1248}, {30, 545, 1, 1248}, {31, 548, 1, 1248}, {26, 432, 1, 1249}, {27, 435, 1, 1249}, {29, 438, 1, 1249}, {27, 433, 1, 1249}, {28, 436, 1, 1249}, {30, 439, 1, 1249}, {29, 434, 1, 1249}, {30, 437, 1, 1249}, {31, 440, 1, 1249}, {2, 261, 1, 1250}, {0, 220, 1, 1251}, {32, 450, 1, 1252}, {33, 453, 1, 1252}, {35, 456, 1, 1252}, {33, 451, 1, 1252}, {34, 454, 1, 1252}, {36, 457, 1, 1252}, {35, 452, 1, 1252}, {36, 455, 1, 1252}, {37, 458, 1, 1252}, {11, 369, 1, 1253}, {12, 370, 1, 1253}, {13, 371, 1, 1253}, {131, 381, 1, 1254}, {132, 384, 1, 1254}, {134, 387, 1, 1254}, {132, 382, 1, 1254}, {133, 385, 1, 1254}, {135, 388, 1, 1254}, {134, 383, 1, 1254}, {135, 386, 1, 1254}, {136, 389, 1, 1254}, {3, 162, 1, 1255}, {8, 549, 1, 1256}, {9, 550, 1, 1256}, {10, 551, 1, 1256}, {3, 236, 1, 1257}, {6, 254, 1, 1258}, {14, 552, 1, 1259}, {15, 555, 1, 1259}, {17, 558, 1, 1259}, {15, 553, 1, 1259}, {16, 556, 1, 1259}, {18, 559, 1, 1259}, {17, 554, 1, 1259}, {18, 557, 1, 1259}, {19, 560, 1, 1259}, {5, 250, 1, 1260}, {2, 201, 1, 1261}, {8, 516, 1, 1262}, {9, 517, 1, 1262}, {10, 518, 1, 1262}, {26, 339, 1, 1263}, {27, 342, 1, 1263}, {29, 345, 1, 1263}, {27, 340, 1, 1263}, {28, 343, 1, 1263}, {30, 346, 1, 1263}, {29, 341, 1, 1263}, {30, 344, 1, 1263}, {31, 347, 1, 1263}, {4, 206, 1, 1264}, {3, 251, 1, 1265}, {125, 534, 1, 1266}, {126, 535, 1, 1266}, {127, 536, 1, 1266}, {3, 224, 1, 1267}, {38, 414, 1, 1268}, {39, 415, 1, 1268}, {40, 416, 1, 1268}, {8, 561, 1, 1269}, {9, 562, 1, 1269}, {10, 563, 1, 1269}, {7, 248, 1, 1270}, {2, 188, 1, 1271}, {41, 360, 1, 1272}, {42, 361, 1, 1272}, {43, 362, 1, 1272}, {2, 167, 1, 1273}, {4, 194, 1, 1274}, {131, 327, 1, 1275}, {132, 330, 1, 1275}, {134, 333, 1, 1275}, {132, 328, 1, 1275}, {133, 331, 1, 1275}, {135, 334, 1, 1275}, {134, 329, 1, 1275}, {135, 332, 1, 1275}, {136, 335, 1, 1275}, {3, 252, 1, 1276}, {122, 531, 1, 1277}, {123, 532, 1, 1277}, {124, 533, 1, 1277}, {8, 564, 1, 1278}, {9, 565, 1, 1278}, {10, 566, 1, 1278}, {128, 276, 1, 1279}, {129, 277, 1, 1279}, {130, 278, 1, 1279}, {128, 429, 1, 1280}, {129, 430, 1, 1280}, {130, 431, 1, 1280}, {3, 174, 1, 1281}, {41, 567, 1, 1282}, {42, 568, 1, 1282}, {43, 569, 1, 1282}, {4, 168, 1, 1283}, {128, 519, 1, 1284}, {129, 520, 1, 1284}, {130, 521, 1, 1284}, {3, 190, 1, 1285}, {8, 570, 1, 1286}, {9, 571, 1, 1286}, {10, 572, 1, 1286}, {32, 381, 1, 1287}, {33, 384, 1, 1287}, {35, 387, 1, 1287}, {33, 382, 1, 1287}, {34, 385, 1, 1287}, {36, 388, 1, 1287}, {35, 383, 1, 1287}, {36, 386, 1, 1287}, {37, 389, 1, 1287}, {0, 197, 1, 1288}, {5, 187, 1, 1289}, {0, 245, 1, 1290}, {2, 197, 1, 1291}, {0, 269, 1, 1292}, {8, 573, 1, 1293}, {9, 574, 1, 1293}, {10, 575, 1, 1293}, {4, 267, 1, 1294}, {11, 513, 1, 1295}, {12, 514, 1, 1295}, {13, 515, 1, 1295}, {4, 263, 1, 1296}, {11, 321, 1, 1297}, {12, 322, 1, 1297}, {13, 323, 1, 1297}, {41, 480, 1, 1298}, {42, 481, 1, 1298}, {43, 482, 1, 1298}, {4, 249, 1, 1299}, {0, 259, 1, 1300}, {157, 414, 1, 1301}, {158, 415, 1, 1301}, {159, 416, 1, 1301}, {2, 174, 1, 1302}, {38, 462, 1, 1303}, {39, 463, 1, 1303}, {40, 464, 1, 1303}, {4, 248, 1, 1304}, {4, 251, 1, 1305}, {11, 522, 1, 1306}, {12, 523, 1, 1306}, {13, 524, 1, 1306}, {157, 477, 1, 1307}, {158, 478, 1, 1307}, {159, 479, 1, 1307}, {44, 450, 1, 1308}, {45, 453, 1, 1308}, {47, 456, 1, 1308}, {45, 451, 1, 1308}, {46, 454, 1, 1308}, {48, 457, 1, 1308}, {47, 452, 1, 1308}, {48, 455, 1, 1308}, {49, 458, 1, 1308}, {8, 525, 1, 1309}, {9, 526, 1, 1309}, {10, 527, 1, 1309}, {2, 184, 1, 1310}, {6, 200, 1, 1311}, {0, 189, 1, 1312}, {41, 441, 1, 1313}, {42, 442, 1, 1313}, {43, 443, 1, 1313}, {8, 372, 1, 1314}, {9, 373, 1, 1314}, {10, 374, 1, 1314}, {44, 576, 1, 1315}, {45, 579, 1, 1315}, {47, 582, 1, 1315}, {45, 577, 1, 1315}, {46, 580, 1, 1315}, {48, 583, 1, 1315}, {47, 578, 1, 1315}, {48, 581, 1, 1315}, {49, 584, 1, 1315}, {5, 268, 1, 1316}, {2, 185, 1, 1317}, {2, 177, 1, 1318}, {2, 259, 1, 1319}, {3, 178, 1, 1320}, {122, 474, 1, 1321}, {123, 475, 1, 1321}, {124, 476, 1, 1321}, {3, 163, 1, 1322}, {0, 262, 1, 1323}, {4, 245, 1, 1324}, {3, 161, 1, 1325}, {41, 525, 1, 1326}, {42, 526, 1, 1326}, {43, 527, 1, 1326}, {122, 366, 1, 1327}, {123, 367, 1, 1327}, {124, 368, 1, 1327}, {3, 229, 1, 1328}, {8, 585, 1, 1329}, {9, 586, 1, 1329}, {10, 587, 1, 1329}, {0, 178, 1, 1330}, {128, 462, 1, 1331}, {129, 463, 1, 1331}, {130, 464, 1, 1331}, {122, 336, 1, 1332}, {123, 337, 1, 1332}, {124, 338, 1, 1332}, {3, 164, 1, 1333}, {4, 240, 1, 1334}, {4, 222, 1, 1335}, {3, 262, 1, 1336}, {2, 182, 1, 1337}, {7, 174, 1, 1338}, {4, 234, 1, 1339}, {0, 196, 1, 1340}, {0, 218, 1, 1341}, {3, 237, 1, 1342}, {128, 561, 1, 1343}, {129, 562, 1, 1343}, {130, 563, 1, 1343}, {2, 187, 1, 1344}, {8, 588, 1, 1345}, {9, 589, 1, 1345}, {10, 590, 1, 1345}, {0, 194, 1, 1346}, {4, 169, 1, 1347}, {0, 192, 1, 1348}, {4, 229, 1, 1349}, {2, 220, 1, 1350}, {14, 591, 1, 1351}, {15, 594, 1, 1351}, {17, 597, 1, 1351}, {15, 592, 1, 1351}, {16, 595, 1, 1351}, {18, 598, 1, 1351}, {17, 593, 1, 1351}, {18, 596, 1, 1351}, {19, 599, 1, 1351}, {50, 399, 1, 1352}, {51, 402, 1, 1352}, {53, 405, 1, 1352}, {51, 400, 1, 1352}, {52, 403, 1, 1352}, {54, 406, 1, 1352}, {53, 401, 1, 1352}, {54, 404, 1, 1352}, {55, 407, 1, 1352}, {2, 219, 1, 1353}, {0, 206, 1, 1354}, {44, 600, 1, 1355}, {45, 603, 1, 1355}, {47, 606, 1, 1355}, {45, 601, 1, 1355}, {46, 604, 1, 1355}, {48, 607, 1, 1355}, {47, 602, 1, 1355}, {48, 605, 1, 1355}, {49, 608, 1, 1355}, {2, 262, 1, 1356}, {3, 263, 1, 1357}, {0, 185, 1, 1358}, {2, 264, 1, 1359}, {4, 171, 1, 1360}, {4, 174, 1, 1361}, {4, 252, 1, 1362}, {0, 162, 1, 1363}, {41, 561, 1, 1364}, {42, 562, 1, 1364}, {43, 563, 1, 1364}, {41, 474, 1, 1365}, {42, 475, 1, 1365}, {43, 476, 1, 1365}, {6, 213, 1, 1366}, {125, 570, 1, 1367}, {126, 571, 1, 1367}, {127, 572, 1, 1367}, {41, 276, 1, 1368}, {42, 277, 1, 1368}, {43, 278, 1, 1368}, {0, 204, 1, 1369}, {0, 265, 1, 1370}, {14, 327, 1, 1371}, {15, 330, 1, 1371}, {17, 333, 1, 1371}, {15, 328, 1, 1371}, {16, 331, 1, 1371}, {18, 334, 1, 1371}, {17, 329, 1, 1371}, {18, 332, 1, 1371}, {19, 335, 1, 1371}, {11, 306, 1, 1372}, {12, 307, 1, 1372}, {13, 308, 1, 1372}, {7, 252, 1, 1373}, {157, 570, 1, 1374}, {158, 571, 1, 1374}, {159, 572, 1, 1374}, {122, 564, 1, 1375}, {123, 565, 1, 1375}, {124, 566, 1, 1375}, {0, 217, 1, 1376}, {41, 513, 1, 1377}, {42, 514, 1, 1377}, {43, 515, 1, 1377}, {122, 447, 1, 1378}, {123, 448, 1, 1378}, {124, 449, 1, 1378}, {5, 160, 1, 1379}, {3, 196, 1, 1380}, {50, 432, 1, 1381}, {51, 435, 1, 1381}, {53, 438, 1, 1381}, {51, 433, 1, 1381}, {52, 436, 1, 1381}, {54, 439, 1, 1381}, {53, 434, 1, 1381}, {54, 437, 1, 1381}, {55, 440, 1, 1381}, {41, 609, 1, 1382}, {42, 610, 1, 1382}, {43, 611, 1, 1382}, {3, 189, 1, 1383}, {41, 462, 1, 1384}, {42, 463, 1, 1384}, {43, 464, 1, 1384}, {0, 195, 1, 1385}, {44, 465, 1, 1386}, {45, 468, 1, 1386}, {47, 471, 1, 1386}, {45, 466, 1, 1386}, {46, 469, 1, 1386}, {48, 472, 1, 1386}, {47, 467, 1, 1386}, {48, 470, 1, 1386}, {49, 473, 1, 1386}, {8, 369, 1, 1387}, {9, 370, 1, 1387}, {10, 371, 1, 1387}, {4, 215, 1, 1388}, {6, 185, 1, 1389}, {4, 189, 1, 1390}, {3, 197, 1, 1391}, {44, 282, 1, 1392}, {45, 285, 1, 1392}, {47, 288, 1, 1392}, {45, 283, 1, 1392}, {46, 286, 1, 1392}, {48, 289, 1, 1392}, {47, 284, 1, 1392}, {48, 287, 1, 1392}, {49, 290, 1, 1392}, {2, 269, 1, 1393}, {11, 534, 1, 1394}, {12, 535, 1, 1394}, {13, 536, 1, 1394}, {76, 432, 1, 1395}, {77, 435, 1, 1395}, {79, 438, 1, 1395}, {77, 433, 1, 1395}, {78, 436, 1, 1395}, {80, 439, 1, 1395}, {79, 434, 1, 1395}, {80, 437, 1, 1395}, {81, 440, 1, 1395}, {8, 612, 1, 1396}, {9, 613, 1, 1396}, {10, 614, 1, 1396}, {0, 236, 1, 1397}, {4, 179, 1, 1398}, {4, 204, 1, 1399}, {3, 205, 1, 1400}, {128, 531, 1, 1401}, {129, 532, 1, 1401}, {130, 533, 1, 1401}, {38, 306, 1, 1402}, {39, 307, 1, 1402}, {40, 308, 1, 1402}, {3, 257, 1, 1403}, {41, 615, 1, 1404}, {42, 616, 1, 1404}, {43, 617, 1, 1404}, {11, 549, 1, 1405}, {12, 550, 1, 1405}, {13, 551, 1, 1405}, {11, 444, 1, 1406}, {12, 445, 1, 1406}, {13, 446, 1, 1406}, {14, 540, 1, 1407}, {15, 543, 1, 1407}, {17, 546, 1, 1407}, {15, 541, 1, 1407}, {16, 544, 1, 1407}, {18, 547, 1, 1407}, {17, 542, 1, 1407}, {18, 545, 1, 1407}, {19, 548, 1, 1407}, {8, 378, 1, 1408}, {9, 379, 1, 1408}, {10, 380, 1, 1408}, {11, 363, 1, 1409}, {12, 364, 1, 1409}, {13, 365, 1, 1409}, {26, 618, 1, 1410}, {27, 621, 1, 1410}, {29, 624, 1, 1410}, {27, 619, 1, 1410}, {28, 622, 1, 1410}, {30, 625, 1, 1410}, {29, 620, 1, 1410}, {30, 623, 1, 1410}, {31, 626, 1, 1410}, {6, 239, 1, 1411}, {4, 208, 1, 1412}, {3, 203, 1, 1413}, {157, 513, 1, 1414}, {158, 514, 1, 1414}, {159, 515, 1, 1414}, {11, 627, 1, 1415}, {12, 628, 1, 1415}, {13, 629, 1, 1415}, {11, 510, 1, 1416}, {12, 511, 1, 1416}, {13, 512, 1, 1416}, {0, 187, 1, 1417}, {5, 185, 1, 1418}, {41, 522, 1, 1419}, {42, 523, 1, 1419}, {43, 524, 1, 1419}, {11, 609, 1, 1420}, {12, 610, 1, 1420}, {13, 611, 1, 1420}, {4, 261, 1, 1421}, {0, 177, 1, 1422}, {44, 483, 1, 1423}, {45, 486, 1, 1423}, {47, 489, 1, 1423}, {45, 484, 1, 1423}, {46, 487, 1, 1423}, {48, 490, 1, 1423}, {47, 485, 1, 1423}, {48, 488, 1, 1423}, {49, 491, 1, 1423}, {2, 163, 1, 1424}, {41, 408, 1, 1425}, {42, 409, 1, 1425}, {43, 410, 1, 1425}, {14, 630, 1, 1426}, {15, 633, 1, 1426}, {17, 636, 1, 1426}, {15, 631, 1, 1426}, {16, 634, 1, 1426}, {18, 637, 1, 1426}, {17, 632, 1, 1426}, {18, 635, 1, 1426}, {19, 638, 1, 1426}, {11, 519, 1, 1427}, {12, 520, 1, 1427}, {13, 521, 1, 1427}, {128, 441, 1, 1428}, {129, 442, 1, 1428}, {130, 443, 1, 1428}, {41, 324, 1, 1429}, {42, 325, 1, 1429}, {43, 326, 1, 1429}, {6, 162, 1, 1430}, {44, 351, 1, 1431}, {45, 354, 1, 1431}, {47, 357, 1, 1431}, {45, 352, 1, 1431}, {46, 355, 1, 1431}, {48, 358, 1, 1431}, {47, 353, 1, 1431}, {48, 356, 1, 1431}, {49, 359, 1, 1431}, {3, 234, 1, 1432}, {1, 203, 1, 1433}, {8, 396, 1, 1434}, {9, 397, 1, 1434}, {10, 398, 1, 1434}, {125, 477, 1, 1435}, {126, 478, 1, 1435}, {127, 479, 1, 1435}, {3, 228, 1, 1436}, {5, 213, 1, 1437}, {6, 164, 1, 1438}, {157, 474, 1, 1439}, {158, 475, 1, 1439}, {159, 476, 1, 1439}, {41, 639, 1, 1440}, {42, 640, 1, 1440}, {43, 641, 1, 1440}, {4, 241, 1, 1441}, {3, 256, 1, 1442}, {8, 513, 1, 1443}, {9, 514, 1, 1443}, {10, 515, 1, 1443}, {38, 294, 1, 1444}, {39, 295, 1, 1444}, {40, 296, 1, 1444}, {32, 339, 1, 1445}, {33, 342, 1, 1445}, {35, 345, 1, 1445}, {33, 340, 1, 1445}, {34, 343, 1, 1445}, {36, 346, 1, 1445}, {35, 341, 1, 1445}, {36, 344, 1, 1445}, {37, 347, 1, 1445}, {41, 363, 1, 1446}, {42, 364, 1, 1446}, {43, 365, 1, 1446}, {26, 483, 1, 1447}, {27, 486, 1, 1447}, {29, 489, 1, 1447}, {27, 484, 1, 1447}, {28, 487, 1, 1447}, {30, 490, 1, 1447}, {29, 485, 1, 1447}, {30, 488, 1, 1447}, {31, 491, 1, 1447}, {41, 642, 1, 1448}, {42, 643, 1, 1448}, {43, 644, 1, 1448}, {122, 441, 1, 1449}, {123, 442, 1, 1449}, {124, 443, 1, 1449}, {3, 180, 1, 1450}, {122, 324, 1, 1451}, {123, 325, 1, 1451}, {124, 326, 1, 1451}, {4, 197, 1, 1452}, {8, 645, 1, 1453}, {9, 646, 1, 1453}, {10, 647, 1, 1453}, {7, 165, 1, 1454}, {38, 522, 1, 1455}, {39, 523, 1, 1455}, {40, 524, 1, 1455}, {4, 272, 1, 1456}, {11, 480, 1, 1457}, {12, 481, 1, 1457}, {13, 482, 1, 1457}, {2, 160, 1, 1458}, {5, 239, 1, 1459}, {122, 534, 1, 1460}, {123, 535, 1, 1460}, {124, 536, 1, 1460}, {41, 648, 1, 1461}, {42, 649, 1, 1461}, {43, 650, 1, 1461}, {0, 205, 1, 1462}, {6, 248, 1, 1463}, {4, 268, 1, 1464}, {14, 651, 1, 1465}, {15, 654, 1, 1465}, {17, 657, 1, 1465}, {15, 652, 1, 1465}, {16, 655, 1, 1465}, {18, 658, 1, 1465}, {17, 653, 1, 1465}, {18, 656, 1, 1465}, {19, 659, 1, 1465}, {4, 191, 1, 1466}, {41, 411, 1, 1467}, {42, 412, 1, 1467}, {43, 413, 1, 1467}, {38, 477, 1, 1468}, {39, 478, 1, 1468}, {40, 479, 1, 1468}, {11, 441, 1, 1469}, {12, 442, 1, 1469}, {13, 443, 1, 1469}, {4, 162, 1, 1470}, {3, 201, 1, 1471}, {3, 181, 1, 1472}, {3, 160, 1, 1473}, {128, 363, 1, 1474}, {129, 364, 1, 1474}, {130, 365, 1, 1474}, {1, 179, 1, 1475}, {5, 179, 1, 1476}, {6, 220, 1, 1477}, {4, 203, 1, 1478}, {122, 429, 1, 1479}, {123, 430, 1, 1479}, {124, 431, 1, 1479}, {3, 184, 1, 1480}, {76, 651, 1, 1481}, {77, 654, 1, 1481}, {79, 657, 1, 1481}, {77, 652, 1, 1481}, {78, 655, 1, 1481}, {80, 658, 1, 1481}, {79, 653, 1, 1481}, {80, 656, 1, 1481}, {81, 659, 1, 1481}, {4, 217, 1, 1482}, {41, 306, 1, 1483}, {42, 307, 1, 1483}, {43, 308, 1, 1483}, {32, 483, 1, 1484}, {33, 486, 1, 1484}, {35, 489, 1, 1484}, {33, 484, 1, 1484}, {34, 487, 1, 1484}, {36, 490, 1, 1484}, {35, 485, 1, 1484}, {36, 488, 1, 1484}, {37, 491, 1, 1484}, {4, 256, 1, 1485}, {3, 209, 1, 1486}, {38, 336, 1, 1487}, {39, 337, 1, 1487}, {40, 338, 1, 1487}, {4, 254, 1, 1488}, {122, 309, 1, 1489}, {123, 310, 1, 1489}, {124, 311, 1, 1489}, {11, 414, 1, 1490}, {12, 415, 1, 1490}, {13, 416, 1, 1490}, {11, 294, 1, 1491}, {12, 295, 1, 1491}, {13, 296, 1, 1491}, {3, 217, 1, 1492}, {50, 651, 1, 1493}, {51, 654, 1, 1493}, {53, 657, 1, 1493}, {51, 652, 1, 1493}, {52, 655, 1, 1493}, {54, 658, 1, 1493}, {53, 653, 1, 1493}, {54, 656, 1, 1493}, {55, 659, 1, 1493}, {11, 528, 1, 1494}, {12, 529, 1, 1494}, {13, 530, 1, 1494}, {0, 180, 1, 1495}, {3, 265, 1, 1496}, {4, 164, 1, 1497}, {0, 188, 1, 1498}, {14, 660, 1, 1499}, {15, 663, 1, 1499}, {17, 666, 1, 1499}, {15, 661, 1, 1499}, {16, 664, 1, 1499}, {18, 667, 1, 1499}, {17, 662, 1, 1499}, {18, 665, 1, 1499}, {19, 668, 1, 1499}, {3, 187, 1, 1500}, {14, 465, 1, 1501}, {15, 468, 1, 1501}, {17, 471, 1, 1501}, {15, 466, 1, 1501}, {16, 469, 1, 1501}, {18, 472, 1, 1501}, {17, 467, 1, 1501}, {18, 470, 1, 1501}, {19, 473, 1, 1501}, {4, 181, 1, 1502}, {125, 306, 1, 1503}, {126, 307, 1, 1503}, {127, 308, 1, 1503}, {41, 336, 1, 1504}, {42, 337, 1, 1504}, {43, 338, 1, 1504}, {32, 651, 1, 1505}, {33, 654, 1, 1505}, {35, 657, 1, 1505}, {33, 652, 1, 1505}, {34, 655, 1, 1505}, {36, 658, 1, 1505}, {35, 653, 1, 1505}, {36, 656, 1, 1505}, {37, 659,